-2.759722642617754712e-02,3.003959235745599227e-02,4.169817105325541312e-02,2.866189043665538956e-03,1.780930443994799967e-02,1.065990002825751605e-02,7.051211910897670597e-03,-6.947026629974996891e-03,-3.341501393705122169e-02,-1.283187397600772488e-03
-1.430179974913802637e-02,-1.751592801530143378e-02,-3.423430935381195639e-02,-2.107294353515846638e-02,-1.725513554213470302e-02,-2.605830121174107852e-02,2.983096901642732883e-03,2.920355262291383230e-02,-8.184460743892868484e-03,2.397198980813059366e-03
-1.120653719356826811e-02,-1.983479287719772804e-02,1.795846957685193332e-03,-8.248020351771936237e-03,5.117905601923121439e-02,-9.043972634144355899e-03,2.031870221619621122e-02,1.074163952080399095e-02,1.427836878647121416e-02,7.144320259198923620e-03
1.473321082850013617e-03,1.585392811267503921e-02,1.220432978324174217e-02,1.161458941586013954e-02,1.988098692658126290e-02,3.118778026701459968e-02,-3.090881541696693935e-02,-1.308729990623966333e-02,4.979867246909935874e-03,2.505112415977158412e-03
2.902578158397733921e-02,1.142047040933891373e-02,1.117131438857827622e-03,2.380848178082150754e-02,3.879409100081051415e-02,1.250923493249841284e-02,-1.613802644015535637e-02,-3.307325092372046926e-03,-1.466688995884115471e-02,-7.222302554299842893e-03
-1.279336477705133278e-02,9.091180030131474493e-03,-1.937395140620174275e-02,-6.889356679859886395e-03,-1.582585399908895130e-02,-9.972986089982840714e-04,5.062938206416059059e-03,-7.977162256232631782e-03,5.310301559559481126e-03,-8.093069058666109775e-03
-1.537050674986393389e-02,-8.897666320648006666e-03,2.374533937200107650e-02,-1.081078637999081417e-02,5.106301760160378810e-04,3.783597483832073366e-02,-2.763706840685802978e-03,-1.415638070991536400e-02,2.559376515944108282e-02,2.508479409868443616e-02
8.721072661671764106e-03,-9.814693785416241795e-03,1.379722698044360749e-02,4.002415758003385893e-02,-1.229707203427844254e-03,8.971384498471015115e-03,3.165919222168717823e-02,-6.908113841775202942e-03,-1.469575343910966767e-02,-1.313617168449342752e-02
-1.301435800664824246e-03,3.242744462276645877e-03,2.734904886352110612e-02,-1.726101169434361704e-02,-2.172023285939839177e-02,-2.931741879118365118e-02,-2.535615738868015126e-02,2.022566042218515436e-02,3.118714453799929093e-02,2.026553657663249935e-02
5.245629430446453571e-03,1.761093985496632597e-02,-9.075403030274327432e-03,-3.109881965629162498e-02,-4.080207641461611884e-03,-8.383120780908616398e-03,-3.664533830048253855e-03,-5.470667363170584989e-03,-3.481423927817960118e-02,-1.449773305650291742e-02
5.349802143328118327e-03,-3.589976541901314377e-02,2.049403258369092776e-02,2.447553799701000787e-02,-9.351480750424878610e-04,-6.365590844240348600e-03,-5.177032116256963939e-03,1.633924763593224555e-02,-2.358789727365246530e-02,2.236890240266823510e-02
2.686804616233904285e-03,-1.070871541827700564e-02,1.830173122346208034e-02,-1.676858742998745683e-02,-1.757532220760786405e-03,-2.171509208174994543e-02,-7.024711067396467203e-03,-7.665837499067415647e-04,1.019988850872097404e-02,-3.698157486168425490e-02
-3.526500363526599569e-02,9.561364815378522661e-03,-1.882367748808741817e-02,1.299232505470838267e-02,2.482075422005449589e-02,8.354186034738314212e-03,7.344458921347564104e-03,1.274264429491320239e-02,-1.500122223503006641e-02,-3.307654774932413961e-03
2.400207442949081615e-02,-8.567776706494775046e-03,-2.855642683491685721e-02,7.343044001084624538e-03,-1.785769556235690392e-02,-7.138353622464407335e-03,-3.040861329091719412e-02,6.919393116785195854e-05,-5.421542296378501283e-03,9.271361401832421386e-05
1.290656755960748782e-02,1.472428558400057375e-02,-2.156542788636301583e-02,2.608009155301664259e-02,2.101303573581285097e-02,-2.767852610735014544e-03,1.101897091218538918e-02,-4.132911237692203990e-03,-3.617370855652036164e-03,-1.066385954444361815e-02
1.469598771875487049e-02,5.910694272255924593e-03,5.458644892097043282e-03,6.570528349122198991e-03,2.009986381367618105e-02,2.722712688476719781e-02,-3.038066628515972284e-02,2.093192796290561063e-03,-2.469909694184847793e-02,2.608259477224294728e-02
-9.306009636087242409e-03,-2.967416919967767047e-02,-2.773422712085293895e-02,-1.912073800899513837e-03,3.319506644308985784e-03,2.103093060226727054e-02,-2.585316041494472791e-02,-2.992483734450028521e-02,-2.335742046962211924e-02,-1.106902175275285144e-02
2.568602818383961851e-03,6.957063817355260173e-03,2.354965252998608358e-02,-1.342224010355568681e-02,-1.825545522940753840e-02,-1.849175679366964892e-02,-1.123273211021450120e-02,-1.683821873274785053e-02,3.097743574023632818e-02,-6.792087011422995833e-03
2.824647064806419527e-02,2.090780832554987173e-02,1.658645310605228254e-02,-1.420542131570246003e-02,4.100875805629263307e-03,1.046837666446708524e-02,-1.445554967263764333e-02,6.770565257296375268e-03,-5.030244988105996885e-03,1.032090990704846376e-02
8.959541210894320139e-04,-1.325012134321675548e-02,1.653527157481976886e-02,2.564024917939713641e-02,-1.221717144052844595e-02,9.035792244646612820e-03,-1.713438385495279909e-02,-1.794798933442935326e-02,-1.132144086215602745e-02,-8.324852341146255765e-04
-2.669277093934610198e-02,2.515929300975506318e-03,-7.997333313541748687e-03,-2.889345332387220286e-02,1.402086022571617449e-02,9.745089292133820788e-03,6.200268367673049440e-04,2.753546578852570856e-03,8.978078579048857921e-03,-2.852980838680261449e-02
-1.164658775877827537e-03,1.774704224003737646e-02,-3.383732270216816777e-03,-1.161713158328784787e-02,2.333679740761175972e-02,9.087734952143428427e-03,-3.080873532315333077e-02,-9.590669619823972980e-03,7.465123933141117919e-03,1.143374960255180012e-02
-1.832210978306640994e-02,1.992630213899788082e-03,2.773441523450241239e-02,2.555242118568968462e-02,1.778226135255412191e-02,4.002882244776176032e-03,-5.391508719025022399e-03,1.416099972668298686e-02,1.872313029508530444e-02,1.430370721010818316e-02
-1.181654453308976591e-03,1.401533219057457536e-02,-1.426664754940503571e-02,1.321345589973297110e-02,-3.438489585443959239e-03,-2.162348346271229446e-02,4.565368715106483781e-03,1.408728783034712134e-02,-1.250428486530823051e-02,-1.565077065448247998e-02
-8.071152576205938706e-03,-1.813474585585179988e-02,-2.472223604723905021e-03,1.878902277648162103e-02,-7.017020555193148081e-03,-1.660939517042264377e-02,-8.551220000415613726e-03,-1.288165421247190225e-02,2.124669302533736814e-02,-9.981043113011270687e-03
-1.043724544000542527e-03,9.122118818690273800e-03,1.362328094331588177e-02,1.639255108286133758e-02,-4.308176712848902669e-03,-1.337084252950733292e-02,4.650460277652807353e-03,-1.521578416014288115e-02,1.423494307179090645e-02,1.443664105677988467e-02
-2.684494921490066313e-02,-5.148504432453309201e-03,9.772434886320142261e-03,-3.539431913153587902e-03,3.999041458472258476e-02,3.733462522764249836e-02,-1.727512651931866275e-02,-1.056629229860442214e-02,-1.770296609086316475e-02,8.931470328592209379e-03
-7.844478340033936986e-03,-1.480595877972974532e-02,2.301248815712753429e-02,8.084388683894685318e-03,1.292387126367423693e-02,1.775258732715906049e-02,1.140480677662296036e-02,9.115640216447486177e-03,-6.853174709466001643e-03,-6.396096216735449452e-03
3.544521608803404521e-03,-5.386391260197743482e-03,1.648574635337659959e-03,3.586699754936981469e-03,2.802521646653006321e-02,2.588767183603725777e-02,1.888918423279615849e-03,3.703347000701689984e-02,1.240111628715409413e-02,1.592989347815121706e-02
-1.503363082701693852e-02,-1.219199330023573594e-03,4.184594644615359169e-03,-1.778627030125382730e-02,-8.216561995943533203e-03,-1.278367403152235252e-02,2.237724826538926154e-02,-8.418848866048374985e-03,-3.137364936775313695e-02,-8.529935322113562160e-03
2.206303532774580092e-02,-2.526388556679381656e-02,-1.594618716871957706e-02,4.559507499704889416e-03,-1.949029329863911919e-02,-9.396188864696935344e-03,-1.411887444422212697e-03,1.072702908582949186e-02,-1.336473101256374814e-02,-9.279216340080189557e-03
-3.183730352090165250e-02,3.536471883053104309e-02,-2.498937204679799271e-04,3.429657142191034898e-04,2.530948928620098404e-02,-1.978159064600064181e-03,3.116340141061678046e-02,1.290438903172149050e-02,2.070054840915359212e-02,-8.019694000629103495e-03
-8.470459897500573487e-03,2.017480626302918523e-02,-3.071482597861649108e-02,-2.825686410829053932e-02,7.974741764308106856e-03,-1.082214146380291661e-02,-2.048477111783364446e-02,-4.071388589593184608e-03,2.796785394478418577e-02,-2.003156556859278601e-03
1.812891580293003041e-02,4.533240634028599600e-03,1.996631900498114370e-02,6.602884085362956124e-03,2.332591038461146599e-02,1.202819597059455632e-03,1.978289545003629295e-03,1.499041950239865875e-02,-2.334300524534755564e-03,2.016055651389558195e-02
5.796433307962697151e-03,-2.376482822719137161e-02,1.565556624874296296e-02,-1.480307652639360934e-02,4.212610363856108750e-03,3.150357174389218501e-02,-9.150513440467470533e-03,-1.433162849008660748e-02,8.969022155626824901e-04,-4.925323880908391051e-03
-2.444590487764388559e-02,2.282062304471789774e-02,-2.793185092146630369e-02,-1.261957529458412018e-02,-4.072263964060187161e-03,1.371177039422235254e-02,5.613511914240052435e-03,1.959306437785203470e-02,1.078122919395802654e-02,2.375919331741134337e-03
4.575980321109822217e-03,1.136036086592337804e-02,2.648940094233414450e-02,3.312749626334171582e-02,-2.160336453678296000e-03,1.273232794444072863e-02,-1.877119081757930297e-02,1.684360042085259260e-02,-1.581949841636940551e-02,-3.673810534356754948e-02
6.464643731074324294e-03,2.320408923827660570e-03,7.930872467893632094e-03,3.385871693709263663e-02,4.827318211703611819e-03,-2.130141063327539372e-02,1.657405583144738043e-02,-2.927918411128301382e-03,-4.919262732602512622e-02,3.499166509561169730e-02
-8.151751670795915825e-03,2.429283219742671071e-02,1.887472110955637494e-02,-4.190602613089391623e-03,1.146615188593002113e-02,-3.135025354958401178e-02,1.349267286934356484e-02,4.731326858282178249e-02,6.891627621369493181e-03,3.979439546954495130e-03
-3.940189565804957245e-02,1.392866385877534856e-02,3.377495547461471662e-04,-2.006318338033387730e-02,-3.110747339799796451e-02,3.287170178624360378e-03,-5.507076178452053120e-03,-2.355256821487517263e-02,-3.160237753845587805e-02,2.489093267327616849e-02
2.211446184787963301e-02,-2.452673570983742585e-02,2.538327711537791478e-02,-8.688506264808980653e-03,-4.940864937220361755e-03,-2.817305620850923172e-03,3.687439176380936934e-02,8.908488454236824367e-03,-2.177972654493924142e-03,1.351882410342678843e-02
-2.005466245641408102e-02,-3.575978895317016154e-02,-6.142999677722834348e-04,-1.195602328704176327e-02,-9.671367605833734683e-04,-1.788161811102536019e-04,5.751285657303628618e-02,-2.655141679070006921e-02,-3.463639399435588379e-02,-4.860638326411627352e-02
9.844471400892902679e-03,-7.771869219996125309e-03,-4.340073340092506782e-02,-1.297653235728583182e-02,-2.268994080676529912e-02,-1.357896814160427026e-02,-1.524727100269156373e-02,-2.221744226445640166e-02,2.172678317434487485e-02,-6.340900674404332735e-03
2.073961029831870168e-02,-1.891649628127264546e-02,-1.145489219148348309e-02,6.992824706623239003e-03,4.373134230078311313e-02,-1.940452839093856005e-02,-4.097719012944294609e-03,-1.798363450883680437e-02,1.549494909881555952e-03,-9.932310788770215559e-03
1.183162872440859763e-02,-4.194335676608044322e-02,-1.946832277399581073e-03,5.080072655589290900e-03,-2.651398796257375956e-02,4.578789718462860162e-03,2.451236884184433869e-03,1.521140143399142379e-02,-2.695358078959825959e-02,-1.539996349866810596e-02
3.970763243743572401e-04,2.221974861721004706e-03,2.674768117336723608e-02,1.849527577301695452e-02,7.265611728880019002e-05,-7.162725304477259372e-03,-7.186177664410057543e-03,8.895868192511797654e-03,3.041573585044693440e-02,-4.853903648903078183e-02
-2.769903978474346981e-02,-3.287388453065209944e-03,-9.187421861720654337e-03,1.767091853078070571e-03,3.584982266558587281e-03,-1.479930120349955483e-02,2.143778278612511190e-02,-1.189856118460213760e-02,4.832342260346580119e-03,9.789452850338399223e-03
2.220705760059697373e-02,3.362454136673887622e-02,-1.558361733171078180e-03,1.699403175851399569e-03,-3.008678862082346181e-02,2.105742389628215486e-02,-1.391344409319366336e-02,1.989187037718646162e-02,-2.395884952409051138e-02,3.447471182659266747e-02
1.559730983744590620e-02,-1.065771734488156833e-02,2.663148517518163991e-02,-2.366763447957943769e-03,-9.022489811648869498e-03,-3.807104435116339617e-03,-2.188671829149319015e-02,-3.068949084558699261e-02,1.539687885894867707e-02,4.697183544303597594e-03
1.349457127300118450e-02,1.161519149861861165e-03,-9.539815027438756229e-03,-1.593372467741795834e-03,7.395877408651871376e-03,-3.111787366386109185e-02,-5.763171764888433066e-03,8.510110920489987602e-03,-8.199585598223117430e-03,1.459120992347427920e-03
-2.153009949819311569e-02,-7.295225782401984146e-03,2.694651542941010544e-02,-1.358240908679732122e-02,4.692892004330727340e-03,3.110677792639805414e-03,1.691094285585923937e-02,2.228131743093421813e-03,-4.792385429374637542e-04,-8.936055986576089960e-03
-1.173826809978527862e-02,-1.788966609833932825e-02,-6.111224407101940002e-03,-2.371512823872305373e-02,-1.624224894136661393e-02,-2.806559480381106905e-02,2.611539961864087558e-02,3.371034898478624670e-02,2.705236318418925527e-03,1.629074689051930244e-02
-4.796036011163832928e-03,-3.559185733192892637e-02,2.674287395647336092e-03,2.993000583113569063e-02,7.327461493159038303e-03,-8.945914910769091344e-03,2.570832196520861021e-02,-6.660200037253935848e-03,3.738160041036465812e-03,2.079460205744669121e-03
-1.126252934776621022e-02,8.784020277286187089e-03,-8.361011489451860776e-03,-6.413978931556368369e-03,1.193988116664164954e-02,-5.695462905376814412e-03,-1.008010797035724382e-02,-9.650946693669216342e-03,2.550589240135447272e-02,-1.358896852967777374e-02
-1.396005134948951829e-02,1.114866592603001166e-02,-5.917831338344019601e-03,-1.356335564465742209e-02,-2.228747254453529447e-02,-3.615903592239367963e-03,6.103471341963391701e-03,1.882529272939172799e-02,1.493293506808943258e-03,-1.782120345078170437e-02
1.461748306047225970e-02,5.570376616595989691e-03,7.379396657532318396e-03,7.488024445010441933e-03,-3.609688012770551069e-02,1.482025511207625199e-02,-7.629818425217645833e-03,1.995431081583438990e-03,-6.312159164226541566e-03,-1.742857126062346759e-02
-4.530994563001965354e-03,-2.572165678597085597e-03,-3.182425571001201714e-02,1.008574309878483739e-02,2.477310247537176449e-02,-1.006985149004889328e-02,2.347467103095370392e-02,-3.617681638684114905e-03,1.423454664526831864e-02,2.558320232687122039e-02
3.743608865833712024e-02,2.526899238125081965e-02,-1.940967928263494235e-02,7.638977431661295820e-04,6.313851135956045565e-03,-3.776466465970325370e-02,1.962470449923103474e-02,1.191756044634652636e-02,6.760419585434705204e-03,-2.180177979853723316e-02
-2.168670570920154181e-03,-2.407495292422241751e-02,-1.751791441045825451e-03,4.979872487703856238e-03,-1.317771594532858408e-02,-2.622061771215741105e-02,2.814463522445807483e-02,-3.857023658146688239e-02,8.250976936444181023e-03,3.625053718205249742e-02
-2.500522748264648841e-03,1.298386012519202500e-02,2.135490811652789034e-02,6.674044878042138633e-03,1.707991007260122041e-02,2.938310589061514377e-02,-2.626194908255998287e-03,-1.907111741923106854e-02,-2.094501163571518224e-03,1.932912733279718714e-02
-3.444512585314171531e-03,9.339570250414772632e-04,2.087162485785795316e-02,6.493296225655815178e-03,3.434254412713636136e-03,4.149306446762097110e-03,4.659420508538933241e-03,-2.251644750455262384e-02,-1.253438735578760871e-02,5.492061445346642715e-03
-1.402685650564699203e-02,1.816058429948502403e-02,1.869621173423580487e-02,-1.299365806462085202e-02,1.540305576279465093e-02,2.643782882699264279e-03,-4.557841806921772432e-02,-9.522367557061357443e-03,-5.222714685484328850e-03,8.703143288075134917e-03
-2.108922582233393062e-03,3.463537882269376411e-05,1.653108546658196149e-02,1.546325203202958062e-02,1.435056541689584859e-02,2.780189360791768260e-02,2.345541313890909044e-02,1.260333932039931631e-02,1.550433579226050303e-02,-2.110896490243200849e-02
3.230621489282538457e-03,3.440714735238999122e-02,-7.353021634430507644e-03,-2.846536577918597189e-04,3.017100495985101591e-02,-2.074327700041748296e-02,2.560528552917006040e-02,1.787985799177511589e-02,1.869296196539870641e-02,-1.690496454785330241e-02
-4.378480557564787441e-03,-2.732306156012613563e-02,1.725254296149729069e-02,-1.574875603689981571e-04,-1.871671827336884864e-03,4.551137326066128502e-02,-6.676584064034798462e-03,-7.988214205660332939e-03,-8.088577746061727594e-03,5.744724047201226966e-03
1.782828416346841569e-02,-1.592644974645895722e-03,1.068746777201826439e-02,6.518184991632126619e-05,-1.577276486992303418e-05,6.940768498311949584e-04,-1.125547143920483523e-02,-7.059106674027746699e-04,-1.343021163986804663e-02,-2.073867259880244132e-02
2.036369190658534646e-03,1.677366918227551559e-02,8.130751765167639616e-03,2.179998138114906669e-02,5.990178523295378032e-03,3.217504516227977403e-03,3.478219871314122691e-02,6.937675936150145386e-04,-4.145195363003998344e-03,-8.366496538300394886e-03
1.971393865171641377e-02,4.407432033383956033e-02,2.761153170453887681e-03,-2.608726626746618940e-02,3.720056416609866627e-03,1.264706664601434639e-02,-2.866705302459663859e-02,-1.978515355359005551e-02,3.452284642398764647e-02,-7.594332287772232772e-03
-2.032166008758038919e-02,-1.179024312285459081e-03,-2.336696411296658796e-02,2.785353792511602658e-02,-1.727200059810432217e-02,-2.686357894283087494e-02,-2.421562157216501903e-03,-1.400009453180614191e-02,1.862864963484874709e-02,-8.570529533284367745e-04
-6.902973202511325165e-03,2.217455549422414282e-02,5.453001551722908534e-03,2.998382842020068384e-02,3.118493071619971371e-02,2.377700801630300634e-02,5.596441986638408736e-03,-2.748442229398321765e-02,6.269774494589997957e-03,2.859774176456032768e-02
8.337943656075673393e-03,-2.234246703549004967e-02,-2.708953628860041180e-02,-4.428038911485138369e-04,1.384833572722237241e-02,2.366240181591836717e-02,8.334947076223026691e-03,-8.428185760014391195e-03,3.955561113062915080e-02,-1.694873454760773002e-02
-9.928915190048934886e-03,-3.222847169762451097e-03,1.415575654779045907e-02,1.714951070089569063e-03,-8.522420886535551085e-04,-5.311255880690067543e-02,-2.042796799290990100e-03,2.327318146092129374e-03,-1.466754923499132349e-02,6.974433651558259971e-03
1.736701256776737590e-02,1.024522650879084286e-03,6.963317744070323702e-03,9.972660473202820189e-03,-2.203252243217404191e-02,2.152834698692357180e-03,3.038916803731863195e-02,5.368943892446000933e-03,2.317202243760805788e-02,6.078655223476030732e-03
-4.408660048037110063e-02,1.722873377015929006e-02,-2.678273808444075338e-02,1.204639981306305542e-02,-1.786923782435381400e-02,-1.405632101572710027e-02,-2.938497315580539115e-02,-1.319861634547051660e-02,5.540447525294548738e-03,-1.569609110715509265e-02
-1.041086662387561215e-02,-8.905089753676726644e-03,-1.840690900086954657e-02,-5.233090342105297353e-03,-1.035073508329362353e-02,3.790260292244683471e-02,-1.605235585499949907e-02,7.114686877400593426e-03,7.886980141838344487e-04,6.977882394753256480e-03
2.770618859431300471e-02,-2.869284321341301208e-02,-1.369772153930249800e-02,2.704040159520391257e-02,7.798482478288261237e-04,5.719612918290621281e-03,-8.092368204561033868e-03,5.904543347782754276e-02,-2.585722404305376004e-02,4.450809759585589581e-02
-2.485922556912142922e-03,-5.308868246005169801e-03,6.591012245758782291e-04,3.417351612971094351e-03,-1.401687254564510689e-02,1.103414101857151143e-02,-5.252838904302693096e-02,1.032902920331171120e-02,1.112065763460107042e-02,2.703193913537992217e-03
8.025175268852697760e-03,6.064980123417409573e-05,-2.247326019906371701e-03,-1.709761013812845796e-03,1.238359162847996534e-02,-2.393943850486358188e-02,1.279989346255636443e-02,1.068837309469091064e-02,1.630028565011871003e-02,1.839850643387467947e-03
-3.345748645644073399e-02,3.575010416898161819e-02,-1.854317617055805875e-02,3.048846678913124872e-02,1.339571746521542664e-02,2.073429509517926358e-02,1.963038284532047859e-02,2.210458678108628838e-02,1.028442871279442589e-02,-1.072640286528216656e-02
-1.037410109402796786e-02,1.104789327526948389e-02,1.215012201544880995e-02,9.943361775394477312e-04,6.527673079999680820e-03,1.873765913047885563e-04,-2.939581885682908402e-02,-1.019795961070154092e-02,3.613858549021495281e-02,7.015637136750281369e-04
-1.113759914491064054e-02,-4.940442968741660425e-03,4.505042719151341676e-03,-2.808221143429486997e-04,2.486140595328231555e-03,1.181765178245236915e-03,-1.145014244482714036e-02,1.844455942220505837e-02,1.670498919648872801e-02,-2.750854180614150865e-02
2.365020097078854733e-03,-1.992780486876622337e-03,1.493102918687783109e-02,-4.609355733512046117e-03,-1.057728470029252812e-02,-7.519737399407972270e-03,2.900834265066296394e-02,-6.388519276090170312e-03,1.656544557477083665e-02,1.002075655768567587e-02
2.114630015082710410e-03,2.587770539527802730e-03,-1.044087606679211695e-02,-1.155654166187867690e-02,2.020854523913536913e-02,-7.045684861297646893e-03,1.531994983686453754e-03,-3.947280531474015031e-02,7.314738102692380090e-03,2.648729826695434345e-02
-1.904785811620711075e-02,-1.492234636911466197e-02,9.378086864931025127e-03,-4.215380480791959539e-03,-1.690343203863346050e-02,-2.068109665410355208e-02,-2.295977422830757647e-02,5.276395346510380849e-03,3.712734906455281148e-02,-2.299659985962384731e-02
-8.477264819304134932e-03,-1.953326785039147598e-02,-5.040257040491663652e-04,6.665002479437903173e-03,1.842884363054596644e-02,-2.137467779659113845e-02,-2.967403690820096668e-02,1.335502740900399062e-02,-1.121568360902048134e-03,-6.372362059440530094e-03
-2.274487026111523050e-02,-1.532312200496464306e-02,-2.178045011603772438e-02,-6.603398615623486123e-04,3.099165064481056164e-02,1.445839450307374527e-02,-2.631297758684182989e-02,3.406642119509768057e-02,9.217080268916171340e-03,1.258335003755018874e-02
-2.454145388829214944e-02,-1.922784241276840472e-02,2.326452539608728567e-02,1.941004552060558719e-02,2.056628058382471702e-02,-1.561985004538232920e-02,3.271214458193547926e-03,-5.110636700870169191e-03,8.176652277926719364e-03,1.078627847270086440e-02
1.666593894646124785e-02,3.944082011308207292e-02,1.497914811938087613e-02,-1.278432518692522273e-02,1.216206315712145720e-02,-3.946974991594047119e-03,2.249268045948526681e-02,-8.005165725707875804e-04,9.415698567162305091e-03,1.772089923141705048e-02
1.567217149155643655e-02,2.296361827923091778e-02,1.351143613360934574e-02,8.304235941442753705e-03,1.519390924409640478e-02,-2.027271681331201808e-02,1.229487953900555014e-02,1.379576771541975687e-02,3.521745540236134037e-02,2.021250776594736565e-02
7.238901245822021435e-02,-1.421219484175157560e-02,3.528995712534571325e-03,7.342738147054405674e-03,6.267195520842657776e-03,2.463905340549807713e-02,-3.176836550132214332e-02,1.733396318551948256e-02,1.988060922203151778e-03,6.824841750920273772e-03
2.342023004384224255e-03,1.862880166932958867e-02,-4.223772623556702570e-03,-2.891566844287421154e-03,-3.162241562393993451e-03,-2.098320834866997456e-02,2.475077336352993901e-02,2.531936555263502794e-02,-1.925676794038651968e-03,5.266972297150084893e-03
-2.870590853185450014e-02,1.196378185680047751e-02,3.555132671401868040e-03,-1.136202095338464946e-02,2.255772447958356505e-02,2.274315401754669480e-02,-1.164493836835961763e-02,-2.205819481112238512e-03,1.232481484489280840e-02,1.160423892444449080e-02
-8.951820836497336332e-04,7.599991868108349480e-04,5.041012867227904169e-03,-1.118456876600869808e-02,7.773986427993480157e-03,8.301529577337884297e-03,-2.500082917151853767e-02,3.341754734001639582e-02,-2.313191286333198676e-02,-8.159844761296435045e-03
-4.429339406615840496e-02,-2.251359798324019390e-02,5.019576808730162251e-03,1.031930461901106036e-03,-4.340196299064154675e-03,-8.754928202951256858e-03,-3.078898194938410257e-02,-2.104425936259994578e-02,1.683176412698922549e-03,1.722172341060756659e-02
3.089862379707886304e-03,8.465776319524921656e-03,1.623142058021565665e-02,-1.000734413418613231e-02,-4.664628893013235932e-03,8.615466210612291939e-03,-2.312936343002696543e-02,-9.778179215328973092e-03,5.465088379340879779e-03,-1.014389810446042484e-02
-5.170951301132332631e-03,2.253598346491644464e-02,4.929997808427447580e-03,1.475474143549933455e-02,-5.060859123594013296e-04,1.056101656795631685e-02,-1.687585736978401002e-02,-6.571553035200206408e-03,7.359042654739172268e-03,-1.065124194019099503e-02
-7.258714114439233575e-03,-2.436295546671396191e-04,-1.138674675454329037e-02,-6.101335438221481937e-03,-2.592091898315238702e-02,-1.548239467168798129e-02,8.399612947657909487e-03,1.422642022938853251e-02,-1.397103805287275465e-02,-7.734101044774685865e-03
-2.906503277891047538e-02,1.747466081607415567e-02,-2.518935512497923364e-03,-2.385431218954970484e-02,2.588954926897409081e-02,-2.541106235103283637e-03,1.011591381345314233e-02,1.906782017631906967e-02,4.690764904886506742e-02,-2.468420234058466348e-02
1.090925802525045431e-02,2.288847171792446344e-02,-1.989406431870572711e-03,-1.280729649271937845e-02,6.005684598205352290e-03,2.456900400736818438e-03,1.838412225204852021e-02,6.229484767726578033e-03,1.924129647093662451e-02,-1.492990648853359959e-03
-2.664130844611731046e-03,2.552079193163996756e-02,-2.610075940632757691e-02,-8.579493217557167262e-03,2.156386680605160491e-02,1.197001743371026335e-02,-5.136073620273148496e-03,2.668199703185392471e-02,2.747899538642540468e-02,8.170414250183135468e-03
2.431884024885923659e-02,1.081019298259849534e-02,-2.474687682025491359e-02,-5.220878217104302395e-04,1.504025569587870252e-02,8.799373957304798891e-03,-1.104347354141893209e-02,-1.379163181960282652e-03,2.067916659865808027e-02,1.478410960395528523e-02
2.496878101764558530e-02,-1.858437757529726730e-02,6.785788333303418782e-03,-4.211649718127310690e-03,-4.190452884378610687e-02,-1.694169260098942614e-02,1.276642214568065280e-02,-2.127201836189392820e-02,-8.419030767150637376e-03,-5.003363829595305901e-03
-2.391798621696126018e-02,-2.567349696141664299e-03,-8.651939482045841595e-03,-2.247330025393930088e-03,-3.711136557308781451e-03,7.141376078790995924e-03,-6.777562661003281620e-03,-2.274828011471314356e-03,3.012426291374923834e-02,-1.022550781614309061e-02
-1.146381520660463491e-02,2.252251569502408332e-02,-8.681860496127848451e-03,-1.474094307695140299e-02,5.253413656748458227e-02,-2.529180722596555825e-02,1.714204332518528412e-02,1.428295176242999794e-02,1.570809910016950084e-02,-2.930960793108187620e-02
-2.750328970402886319e-02,6.094058020960909511e-03,2.032353869546598118e-03,1.003110740530014505e-02,2.527327673238459471e-02,-7.046528149527386820e-03,1.843041180731211587e-03,-2.221058804363249331e-02,1.291257322282663572e-02,1.232661076993438534e-02
9.984638000750742023e-03,1.722877001819328110e-02,2.073101268172110323e-02,2.320146537772792804e-03,3.861975977720300251e-03,1.749776174327504017e-03,2.594826043382341546e-02,3.387570360258885388e-02,-9.830241201328849404e-03,1.073031696726989628e-02
-6.948332377941933598e-03,-3.813515932034330924e-02,-1.274706624872024713e-02,-5.369561427425789332e-03,2.644100704536883617e-02,1.637919406115015755e-02,3.357565860525610346e-02,-1.325732057394976571e-02,5.551909163156821224e-03,2.352409088861085601e-02
-3.293919660101491884e-03,3.051671964173417392e-02,-1.787067602511712219e-02,-6.116314998856436230e-03,-8.923380029105296152e-03,-1.748009094703284125e-02,-5.760516476278946217e-04,-2.167421632061465771e-03,2.208592098519221100e-02,-4.784577428835943246e-03
-7.197521903299604513e-03,-2.912092422694496398e-03,9.368733794836332784e-03,2.386574261347431877e-02,-3.173095433121509573e-02,7.974898684346488562e-03,-3.505229228260575702e-02,2.867849111103708964e-02,6.926045058432526644e-03,2.223393899248660502e-02
-1.995526807466751346e-02,-4.749480316357930672e-03,5.778911938299597165e-03,1.603784693719420562e-02,1.803467146384181430e-02,2.197820556869134120e-02,-1.768988809680041227e-02,-3.293917902467259282e-03,1.937285125424821966e-02,1.171973610772643977e-04
7.664956922271011844e-03,9.436709536189129711e-04,1.242513659128586037e-02,1.365882369271160385e-02,-1.771120314199832110e-02,3.987134391171390929e-02,3.318576282551218004e-02,-1.040618132570722554e-02,2.486827313031636510e-02,-1.746141223883270269e-02
2.231648819299403286e-02,1.491903360619453028e-02,-2.016273944938404630e-02,3.989631867478175831e-02,-2.585017255054532833e-03,9.785109249795821348e-03,-9.787275452606285578e-03,8.119849020884921994e-04,-1.947486533843284257e-03,-5.702859412314827472e-03
7.686526086947091836e-03,-2.206044941465643699e-02,5.081305936628421893e-03,1.021348546876983850e-02,1.350624908281509605e-03,1.760647182620112992e-03,-8.794554187690597005e-03,-5.588997944372673873e-03,-2.858341224358483534e-02,-2.726666833087082464e-02
3.699748650131567257e-02,6.850907626202961710e-03,8.148811175714112259e-03,-1.713698731146751433e-02,1.537950423372646050e-02,3.421915808099938727e-02,2.789177142657273904e-03,-4.510616531538047536e-02,2.638835017133228395e-03,2.157009407356142230e-02
-4.392221453712071358e-03,-3.669290330045871934e-02,1.328167221431176409e-02,6.333030904047536394e-03,-1.525874633390801247e-02,5.047480206576044487e-03,2.799143493518818637e-02,-2.738631257529660842e-02,-5.988726880835147214e-04,1.385154118005946927e-02
-1.293084291495403063e-02,-3.178086892953137753e-03,2.949751455554702403e-02,2.373879136483462646e-02,-5.019689030326417514e-03,5.644326992984526926e-03,1.470345464899495622e-02,2.025165381883618082e-02,-1.383245717524457345e-02,-1.716662207361878412e-02
1.033985225904216973e-02,-1.521749164838663917e-02,2.960316100174845491e-02,2.353472881223002758e-02,-1.433878572017664547e-03,-1.168149874254943189e-02,-1.781756679397703338e-02,5.062766517947402817e-02,1.717407234942174704e-02,3.557298254312295238e-02
4.214839660349410655e-02,3.473176012715994184e-03,6.710292217095079406e-03,2.231128632131974994e-03,4.242305484541612597e-03,-1.784625898140556471e-02,4.355788024131706376e-02,1.336371951272420633e-04,3.532955813685242918e-02,-1.708575332604469338e-02
2.110768271239825064e-02,2.052153693596804607e-02,1.072071985508536024e-02,7.617699582504263052e-03,7.188923053642519087e-03,1.493851742454626458e-02,2.151792569810321090e-02,2.215800780288365232e-02,3.496785180443507009e-03,1.873483236377622430e-02
3.459580599653602762e-02,-1.828086955190455845e-02,8.329524812048632806e-03,2.455108682472401452e-02,-5.849453874206323768e-03,-3.600615261099488623e-02,4.068297166387435312e-03,-4.677429916801600766e-04,-1.326034877444370180e-02,8.293555643850774109e-03
2.106564193736278068e-02,-4.196028068691608909e-02,-2.719804068461077404e-02,-1.124572736585472636e-03,-3.927353476934081211e-02,-2.960344753760111094e-02,7.105569957128308849e-03,-1.946428994706626142e-02,2.538577053970698938e-02,8.296436984957633598e-03
1.430168678964257103e-02,7.884756398014341680e-03,1.002653833579243443e-03,9.385170898650903662e-03,3.207018575856708520e-02,2.175619574928821381e-02,3.249065230533652263e-03,-1.545704775195366407e-02,-1.585618500321845162e-02,-7.840051452190634554e-03
-1.636556398541635579e-02,-9.411791671602732709e-03,-7.962335683570626391e-03,-2.849753415033763008e-03,1.509888997987856966e-02,2.056168814905122086e-02,-4.195098245802779402e-02,4.776441216892864799e-02,-1.729802172946169614e-02,2.840932062099104077e-03
-1.601467504532911104e-02,-7.876529094015781440e-03,-2.029833760453725669e-02,2.393991927013584126e-02,-3.147304391227621900e-02,-1.751248622050975701e-02,-2.696939299666789580e-02,-4.312769664585929842e-03,-6.039060708679767388e-03,1.858678710395545233e-02
-3.124566692875397960e-04,-6.906419923811782727e-03,-1.103757664772780228e-02,7.474424697977084461e-03,5.008166955247077973e-02,-1.575858876829648939e-02,4.267754980968410140e-03,7.035396236427378727e-03,2.153524548334493846e-02,2.033245405089978766e-02
1.379354684288098751e-02,1.116624662125614842e-02,-1.442586134605776220e-02,-2.656762084838115018e-02,1.833955284092328095e-02,-4.705703844272005054e-03,2.597940339677346291e-02,-1.396628411243159076e-02,2.550195131871286786e-03,-3.519221582683291355e-02
2.914848111731360974e-04,-1.165836127544656736e-02,7.482700324338801591e-03,-1.380720131038866254e-02,-1.442759025213636095e-02,-1.100782923300992061e-02,2.343630633356159811e-03,-2.277221148600076100e-02,1.917844624888849492e-02,3.715052156981437509e-02
-2.248430220462496829e-03,-2.296574789131343441e-02,8.362785358932945182e-03,-4.462341875707629552e-03,2.250437137555742501e-03,-3.760861562776429516e-03,-4.210710336800604220e-02,-7.939624065650465259e-03,7.179924030422868940e-03,1.680937622015208407e-03
-1.054755944454621383e-02,-1.550126266529223452e-02,-1.582938572204242028e-02,-2.538365039345438431e-02,-3.337999300673084868e-02,-1.870510835067012989e-02,7.171157145504510402e-03,4.923972279366747168e-03,2.777618365185545793e-04,-1.339742233477337653e-02
2.925807472892478361e-02,5.303032585315802395e-04,3.480044405279524022e-02,-1.207658651730178154e-02,-3.921694308740098465e-03,-4.292382367322256781e-03,-6.933040288491667744e-03,2.749570045858086564e-02,6.161312606065726637e-03,1.059666758227301164e-02
1.973343072728583544e-02,-1.262231039779907610e-02,8.811351836119916611e-03,1.781526645492847311e-02,-6.159452033529511789e-03,4.920334123956852934e-02,-5.605239276855661368e-03,9.106872818287030380e-04,1.315178857719639591e-02,-1.022619885097565337e-02
1.916471535685927013e-02,1.324253209360886849e-02,-1.041010362886004431e-02,6.460011757554158605e-04,-3.017722074742708663e-02,-2.496862965404908832e-02,-8.559759630966687002e-03,6.837803457390451839e-03,4.413189731333388467e-03,5.280114060010355874e-03
1.997411969080432198e-02,-2.892814106478262468e-02,1.974931645964041541e-02,-5.006863434397852697e-02,1.346013335339460047e-03,8.096882637850308720e-03,-2.172279574619315548e-02,3.035690019592975769e-02,1.291883623276616870e-02,9.824760123239592233e-03
1.279787543369041497e-03,-1.007500802079059656e-02,1.199893634822116889e-02,-7.666638184409419951e-03,-8.714671653188937189e-03,-1.198059612581568907e-02,-1.268342397017447123e-02,3.054108181947117612e-02,-4.151749000392452281e-03,-2.837603419530038834e-02
-1.694486788567610078e-02,5.273415640570267016e-03,-7.332485755764458525e-03,-3.729571336351314437e-02,-7.566964963148198700e-05,1.171114538964355273e-02,2.002424577472083217e-02,-2.159164505157056685e-02,-2.912782788037492077e-02,-2.416046440196878420e-02
-4.895283773649079101e-03,-2.611528583673653359e-03,1.831685862731315464e-02,2.084895078236474047e-02,7.558970528879601497e-03,1.086961585669602229e-02,-2.306894491998471089e-02,-1.048599260054938406e-02,2.154668641491101766e-02,2.803377765793695509e-03
-5.232082191194045717e-03,-1.051475891048929065e-02,5.834372188273902540e-03,9.876301347024243199e-03,-2.811766052100689306e-02,-5.012562212569613741e-03,-8.047890005175410699e-03,3.489875171132960155e-03,-2.133181289126792265e-02,3.161651360047224024e-02
-3.218830188254263088e-03,9.431426848331429975e-04,1.207245949959719587e-02,-1.332663645481752847e-02,1.841384272464897248e-02,-4.521740761842747529e-03,-5.055554317744318654e-02,-3.626331950472329747e-03,1.774097244841375820e-02,1.516392752256719026e-03
1.850238996692426738e-02,2.024304803361851209e-03,2.828356892698276684e-02,-2.850581322895544278e-02,-1.305738358345692914e-02,-4.017061635103776063e-02,1.088604040923139621e-03,2.216480885585212293e-02,-2.870042371495089284e-02,-2.925902949990528707e-04
-8.199596708762925054e-03,7.194906313897764380e-04,-3.763026641482656448e-02,-9.555475900459860228e-03,-5.791538554974413368e-03,-7.898801877372645455e-03,-2.969507443210915240e-02,-1.712007399029857185e-02,-1.481380300206156658e-02,-3.543503529257982531e-04
-3.617309994697711327e-03,3.098716493161747521e-02,-1.968589462359977837e-02,-2.069696358029698979e-02,-2.341440166156051952e-02,-6.635817140535934036e-03,6.918093530667025239e-03,4.922516242766159650e-03,1.046407999662116173e-02,-4.202598250708982318e-03
-1.174284519877520118e-02,-1.909604908191354228e-02,2.344558522996516639e-02,9.437544775413293872e-04,8.030985351971333189e-03,1.201064722466930849e-02,-1.876884797027886589e-02,1.022936688757912840e-02,-2.236924359756276362e-02,-2.606449915991721628e-02
-2.978738264314458734e-02,6.550966002140542165e-03,2.375355599786363806e-02,3.083225634753502739e-02,-1.799963077511750401e-02,7.443197953507974972e-04,-4.532421365588793633e-03,2.896214314810193619e-02,-1.563482539575153157e-03,-1.092154711612282857e-02
1.445006229762323471e-02,1.507695412806044424e-02,-7.786183080937068152e-03,2.442398008320113834e-02,1.972295570178776020e-02,-1.218038200314092850e-02,-3.213964572377660603e-03,-2.147742473202108454e-02,3.732948587210518747e-03,3.828157636028788058e-02
1.166645716263383249e-03,-2.170237366644150664e-02,-1.285654766658622487e-02,4.429474134577154193e-03,2.192257140295512247e-02,2.474071293567145155e-02,-1.373672114833072132e-03,3.406920571986054441e-02,5.835456176166758414e-03,5.663388523891802438e-03
-5.366053912313983008e-03,2.015352251071556369e-02,2.620398411879822434e-02,-6.013275146693703409e-03,2.951738559317119721e-03,-9.063745987683244007e-03,-9.025669716774099112e-04,2.843548286363023481e-02,-2.119767119790155752e-02,-5.850720041939719285e-03
-2.034888672976213272e-02,7.396509272393430407e-04,-3.246360017456000752e-02,-1.929870846489278174e-02,-3.188169389281763494e-02,-8.007574339368975572e-03,1.042627981685312691e-02,3.019748127769491045e-02,-1.710308300051841890e-03,-1.163187938495156663e-02
-8.287893886637627203e-03,-1.493821694559801204e-02,-5.751332243883477274e-03,1.360109380804778827e-02,6.970595097976615105e-03,-1.318443978956276852e-02,-1.219124775529390609e-02,-3.418007744226139732e-02,1.081883703374761536e-02,-3.181076045946568294e-03
1.683972927410152393e-02,-5.605491260872124022e-03,5.467559756471797837e-03,-2.405241196986205102e-02,2.516918460922006051e-02,6.153103210008580883e-03,4.398563509732141344e-03,-8.751846181942663817e-04,7.881114713201100436e-03,-3.455742282704435397e-02
-1.962650591019099444e-02,-8.767445168427910954e-03,8.842904260283050710e-03,8.438785896639914089e-03,6.918811621805263067e-03,-3.739487752727464753e-02,-3.859141757656088523e-02,7.571647733951123761e-03,4.476495800548309541e-03,-1.497771393298101029e-02
-2.658916681142158012e-02,-3.811429193497859608e-02,2.905220619896817583e-02,1.701379798771068819e-02,-7.767770546862363783e-03,3.040621936674886387e-03,-4.268480506536976270e-03,1.846504415882032832e-02,2.357700769692512317e-03,4.748704677589583173e-02
4.738476350269223147e-02,3.685652728270048112e-02,2.072255800207218127e-02,4.690427040918220686e-02,1.211986439381513431e-02,-5.144034997682368597e-03,1.857677099403876042e-02,-1.902341242001911667e-02,-1.821916854412672024e-02,-1.866331172340029293e-02
-1.278187531793183347e-03,2.566461707495775596e-02,-4.661922091931531599e-03,-1.866390637042041750e-02,1.758973848589645908e-02,-2.502765385965574282e-02,-1.870622195334703010e-03,-1.274795891198380986e-02,2.866894811838339649e-03,1.529173024493535142e-02
-1.229268865199555257e-02,1.934496868167742342e-02,-9.954377938588136396e-03,-1.050172711610083834e-03,-3.606803402731458691e-02,1.777661641208822408e-03,-8.380396000056631808e-03,3.143582064296735704e-03,9.090702880184370034e-04,-2.072748693762210478e-02
4.061828574009312270e-02,2.862907828019419301e-02,-3.021743573865081495e-02,5.999283761018958140e-03,-1.302730385060529850e-02,-5.056105234744237911e-03,1.576393523348301393e-02,1.846875436892755212e-02,-1.690834131388130671e-02,-4.319197041867380536e-03
2.526454370682965425e-02,7.485558479799458639e-03,9.163847948100840163e-03,1.305751648567073618e-02,1.737647195437986083e-02,1.878443669808201391e-02,5.849387679375071987e-03,1.383563171018590762e-02,-6.246978033384221855e-03,2.361405819661115124e-02
1.102822059487512663e-02,1.310635253634970417e-02,-2.786995257590319658e-02,4.050172818413148162e-02,1.923924420658186529e-02,-2.748318577149131033e-03,-4.336483785543892439e-03,4.990078414356184135e-03,8.551059149546805238e-03,-1.401961929409455652e-02
7.191690387320716013e-03,-1.014838499488024404e-02,-8.204454558742389075e-03,-2.688943533534265268e-02,-2.459046995859564839e-03,1.071733602354259414e-02,8.847708668758086370e-03,-8.902394900920325427e-03,-1.058301928946979269e-02,4.653766668897965815e-03
2.435807363130756617e-02,-3.460478687529975478e-02,2.291567033946489626e-02,-2.776981041151813448e-02,-2.161977398203603767e-02,-1.586800901045945164e-02,-1.420287390809702593e-02,8.195081330482736556e-03,-4.796417352153878322e-02,1.009224333236077853e-02
1.793032491134676984e-02,-7.547577429697917631e-03,-4.038827736103701473e-03,3.713059603706980044e-02,-9.216077727445429885e-03,-4.345112114821658711e-02,8.589245519333443130e-03,1.153989163674317385e-02,1.385541130399147651e-04,2.661686656558709743e-02
2.338773800018427440e-02,9.072961045063053379e-05,1.348071235278593821e-02,-1.659670428630052527e-02,-9.437709575266704787e-03,-2.758355573823497234e-02,9.026709074716973008e-03,-9.858334470752998929e-03,7.037110174185073549e-03,6.635369557032833390e-03
1.383857834884503341e-02,1.263348567904379501e-02,-4.830020726557817355e-03,-5.444183761945768640e-04,-8.061902443707065144e-03,8.673798465990261927e-03,-9.079050344794102959e-03,-2.443561330387605118e-02,-5.466700542841497132e-03,-2.618999638159152932e-02
5.252170488397136551e-03,-5.564215239034270635e-03,2.856289754203084064e-02,1.825315619382267274e-02,-2.419468236177511888e-02,-1.565337650747496839e-02,6.775741773793409611e-03,2.652754913322961233e-02,4.189085691871604483e-02,1.198957925354482250e-02
2.147780821581192490e-02,1.244233047003872814e-02,-1.650522233615195952e-03,3.841621140366331677e-02,-2.496256435685582920e-02,7.797551420284215204e-03,1.218250585851039965e-02,-2.032702919912607407e-03,-8.047007390945739441e-03,-1.342788601865160802e-02
-5.019195503408328644e-03,-2.796613631080823933e-02,5.622797726728224164e-03,-1.393018298354161029e-03,1.048178014228223418e-02,-1.310525363759601838e-02,2.428807775674584821e-02,-3.504413054608571804e-02,1.011393004581869447e-02,1.011257931241852683e-02
9.228043297784781218e-03,-1.872269931037606056e-02,3.005546849935555181e-02,-4.407181347594569046e-03,-7.948725322092916809e-03,1.837779393740782488e-02,-1.628672593797198670e-02,-1.080048276934897529e-02,-1.604231734182518659e-02,3.298281572908470100e-02
7.342307468665766092e-03,2.502338847995581525e-02,1.995162913330367216e-02,-1.989075292513351953e-03,3.084251529906365408e-03,-6.564045270343248778e-03,-2.540584814360098698e-02,-1.286634028195235424e-02,1.412854673300026169e-02,1.124952501005391410e-02
-1.414367342252308493e-02,3.650434237139899701e-02,4.433179138946177246e-03,-4.629271093099395634e-02,1.385439323366659779e-02,-8.190901309261767668e-03,-5.370274041017647146e-03,-6.601778006603873684e-03,1.127175056513218983e-02,3.843508211601279895e-02
-5.910137821617185948e-03,-1.202978387417937521e-02,1.405162075597178768e-02,-1.081358108890178790e-02,2.034185502174238810e-02,-2.092327957581655365e-02,-2.009622296601179872e-02,-4.522834613104554508e-02,-3.159955409771710022e-02,-2.020916616094408855e-02
1.234818609718813139e-02,2.126613695050251843e-02,-1.896583490004861983e-02,1.965932386869282365e-03,6.695952124930459014e-03,9.891294314351055730e-03,1.371157192464600612e-02,7.903248564831979669e-03,8.859419187814469160e-03,1.986824935124679309e-02
-3.160059720037617509e-02,-9.473378804711819062e-03,4.166423431115788729e-03,2.432190357662460112e-02,-8.879940123374726463e-04,1.970812814792479752e-03,-2.879375195018523889e-02,-7.610649141189176382e-03,7.220776434235264864e-03,7.786847941448233994e-03
7.704478611431152084e-03,1.962027515097824332e-02,-1.486549964636257708e-02,1.147112890665623547e-03,1.503584866881863685e-02,-6.339379119357079796e-03,-4.152882789185266543e-02,1.150956173740146776e-02,1.684310662236714398e-02,-7.855253072948324006e-03
2.536382055566847524e-02,4.234874602122971725e-03,-2.629483684976404931e-02,2.193270487204899977e-02,-6.191799426040895706e-03,-3.658579045344891381e-03,-2.077761577911522647e-02,-2.214784830740115090e-02,-1.406574798875811008e-02,1.648361341042824807e-02
4.804344127740273543e-03,8.274692781693935434e-03,-4.048400629753052399e-02,-2.552775382433519064e-02,8.725509853251007392e-03,-1.544472299005482212e-02,-2.985595101034337756e-02,-3.354660326739072190e-02,-4.624562150999870364e-02,-7.411554074471281457e-03
-1.860250637971689811e-02,-8.552503051119420040e-04,1.443721613514450074e-02,-1.799476678960247600e-02,1.024623133912587990e-02,8.197993828167833563e-03,1.648177488194151573e-03,-2.152762147126206088e-02,-1.316617976735025113e-02,1.731218786787474054e-02
-3.095587906452938048e-02,-1.891097919237974892e-02,-2.866241771794663523e-02,1.182709189833408905e-02,-4.784298339994262975e-03,1.649729852919484124e-02,9.791535663809667472e-03,-9.886584132183308046e-03,6.648735065438824733e-03,4.771808767824878283e-02
2.402029443833628673e-03,3.840729185830113468e-02,4.385712744549108942e-03,-6.967345085166082308e-03,-2.148689068341475342e-02,4.281844350293525364e-02,1.059257048196552212e-02,4.309548570391125849e-02,-6.475996969168961587e-03,-3.359577519441078741e-02
3.629466305943742158e-03,-7.126152970115619094e-03,2.038652733853421953e-02,-1.361063434633124139e-02,-2.662186594536432652e-02,-1.213590606310192312e-02,-3.362683748310436871e-02,9.464554782331573027e-04,7.560472975969422839e-03,-2.320028376835631817e-02
-1.203389304852170655e-03,1.452764162813637364e-02,1.364402123997632624e-02,-6.787302156103704014e-03,2.494966626239618346e-02,7.673410013913032485e-03,4.486336621842488583e-03,3.400105083674742103e-03,2.627439492119672780e-03,-9.358521266489460561e-03
5.224068317273834923e-03,6.114239200490687032e-02,-4.723378908687859631e-03,3.487899267703863104e-02,-2.114031879994325569e-02,1.738624411088485547e-02,2.270750012148357172e-03,4.791346906287389032e-03,-1.015119664402411477e-02,-3.248310790897986078e-02
1.199291336698201163e-02,1.067333102592785826e-02,1.555192751701926258e-02,-1.769861526032976209e-02,1.297283554263608087e-03,-5.995994371903688551e-03,1.425580138122519054e-02,-7.337044740204455053e-03,-6.826643834539296470e-03,-1.538735794919614784e-03
7.513440452862938691e-03,-7.465053084126021393e-03,-4.276884906447627789e-03,4.364285512941239479e-04,9.079743203798064724e-03,1.097793242451247826e-02,-1.002111149430061181e-03,1.423755256420700804e-02,-5.669915575117581361e-03,-2.050413846262064479e-02
5.144446469829485214e-04,1.287052480734773852e-02,-1.561635272664411295e-02,2.271703872597229112e-02,-2.406136229349735076e-02,2.633458810726963667e-02,-9.840947608668841953e-03,3.054679500079303389e-02,-3.145266856665630828e-02,2.332191106307363732e-02
2.798024729452123788e-03,1.522739885541628604e-02,-3.879874670626303791e-03,3.245024105376092399e-02,-3.785002157795781092e-04,4.940758044236676777e-03,1.789216121344307155e-03,-1.408586809252207646e-03,3.584014903662883361e-02,-6.480882138064565298e-03
6.108409006962757168e-03,-2.455557344273564743e-02,1.923187388624631594e-02,3.162977006728120294e-02,-8.387994274180445020e-03,1.074122237727511905e-02,-1.686573585474950010e-02,-4.760783415128536089e-02,3.016279027400786683e-02,-2.130725912484024778e-02
1.019975821756724521e-02,-2.071641108785161889e-02,2.060681233860829631e-02,-1.809867558264616986e-03,-2.000258525889569289e-02,-2.069675236376394833e-02,-2.421057062077561738e-03,-2.540928288457674350e-02,1.365627476672750737e-02,-1.332875598722615615e-02
-8.893416537216359413e-03,-4.554688028475152584e-02,3.241908388565362554e-03,-1.047707947626563482e-02,1.016181912760988348e-02,4.035231355210651405e-02,2.019435989539361889e-02,3.671045274240163081e-02,-2.564426401354470697e-02,-3.743270392223944920e-02
-3.197354230731416780e-02,-1.340959085516863630e-02,-8.073229689969421132e-04,4.975506134730062592e-04,1.188864533504786552e-03,-3.926783265821039539e-04,3.128993722653158893e-02,-9.602442006414618064e-03,-1.327184276107945191e-02,1.537324335549857500e-02
-2.499352210417353070e-03,-2.170577681306538192e-02,-8.036724025100871333e-03,-1.837019158782430195e-04,-1.042242889081267890e-03,-5.929650290527023297e-03,1.094302022086237128e-02,-4.742128680823939207e-02,-2.409218314109557585e-02,-1.966147566415552689e-02
-1.509665849844593795e-02,2.419825621354116524e-02,-2.408667583487358183e-02,7.801949917733738693e-03,3.202359790207811620e-03,5.350041515207893533e-03,2.722775878226620788e-02,1.496715475439485982e-03,-1.339881028782106617e-02,1.378968925448915452e-02
-8.118725367186769085e-03,-1.971863184788575415e-03,-1.446305190446184677e-02,4.327343220723282521e-03,-1.634561370171918595e-03,1.728611465116804136e-02,-4.857634843726348767e-03,-1.138438950789140945e-02,2.868764184414546777e-03,1.309692221709275566e-02
1.246212285428181452e-02,-3.134179090455789518e-02,2.009233984338075138e-02,-1.791721536193221359e-02,-9.770434819664969295e-03,5.088689743800913629e-03,-2.750224465100315624e-02,-4.481523303521544330e-04,-2.118421859715299144e-02,-9.476842349829955880e-03
3.421556023020146803e-02,-3.187049096753397787e-02,1.375525792528485038e-02,-5.064426469449743312e-03,2.425553940735625594e-02,-2.099560677378331519e-02,1.418422867152039843e-02,-5.484679837345623338e-02,5.085206219822149083e-04,-8.203158434147005129e-03
6.315132206346754998e-03,-1.185578840361496168e-02,1.653069231843872638e-02,1.702863525249163207e-02,1.912691882712599586e-02,6.302195197255703110e-03,1.279631832759798964e-02,2.626995083736236719e-02,-3.034382524936296219e-03,3.706973407413688415e-03
-1.404354997267969613e-02,5.706843867137951359e-03,8.804477932099966445e-03,-4.161952154645387654e-03,1.322653445303090605e-02,4.710562682737983592e-02,-2.926955044217659230e-02,3.483362515026203199e-02,1.427085326175691954e-03,1.028576836381913003e-02
-1.670820180856587029e-03,1.169421064648537741e-02,-2.383715403372764149e-02,-2.576585901958480460e-02,3.075842065080830814e-02,1.294800474232732368e-02,-5.495037125923309465e-03,-1.618019853741740205e-02,1.609628423878764480e-02,1.156936027472706824e-02
-1.680374272776361325e-02,3.453954883465001208e-02,6.956970741460420118e-05,-1.390169579984252071e-02,2.497516066850280145e-02,-2.797094874307010093e-02,-4.811661395453376705e-03,-3.630593547972407135e-03,9.569609397815511190e-03,2.393549529466390893e-02
-3.953203373147145747e-03,7.038450051668040421e-03,-1.655900891612316003e-02,-3.182903603741067938e-03,-6.244155279639423094e-03,-1.044229854456390875e-02,-1.528410702737627129e-02,-1.790451437900823090e-02,7.786099026594530716e-03,4.877108426802181929e-03
-1.362837297569162616e-02,4.004850828529265411e-02,9.067719566679583593e-03,2.223417637881134126e-02,3.337606441835062887e-02,1.199227862831602626e-02,9.695733095757713173e-04,2.603281129953578105e-02,2.368792316596074130e-02,-3.371038101224543143e-02
1.447364588033138617e-02,-5.614152058808320050e-02,-2.057684393492380248e-02,1.126947961895508228e-02,-6.638620802756806799e-03,-1.284011639967434608e-02,2.484352875365668234e-02,4.226054123179456140e-03,-4.010720170911080164e-03,4.007649050700805293e-02
2.020772679418225692e-02,-3.890200528711607736e-02,-1.521680732067128569e-03,3.407845867200618665e-03,-2.020603637228638241e-02,-2.297364436893122724e-02,2.363352792700196617e-02,-2.183892590322804306e-02,-8.682614062520292719e-03,-9.817497059435402462e-03
5.813757282299254411e-03,-1.284308294686594375e-02,1.145147975651041386e-02,1.667042628902400733e-03,-5.953349320698979666e-03,-2.596242704782800170e-03,4.307384956850596192e-03,-4.362864775251631966e-02,-1.868149589990611079e-02,1.753491424192780545e-03
3.025360934367285135e-02,-7.066743031209120687e-03,-1.806042739660873933e-02,-6.600697860299707112e-04,-5.587254575690454340e-03,7.095385057446843349e-03,4.655584787185983869e-02,-8.074469915256223158e-04,-2.067539137456075177e-02,-1.731301744111779853e-02
-7.290293796413082825e-03,-3.624390995827698331e-02,1.552857086261306453e-02,6.737377639359951390e-03,7.884592370494692814e-04,-2.477704694026408236e-03,1.053574964766719989e-02,-5.845784938183537071e-04,9.183836245130996140e-03,4.990474589831651181e-02
6.325850816297795901e-03,-1.625940748986346232e-02,1.005961636961641252e-02,-2.911806780858729876e-02,2.030504699504191018e-02,3.751140409288923096e-03,-6.702933564588324337e-03,-1.387844613928834389e-02,3.313550672277971315e-02,1.750067543662845240e-02
-2.742564654379620742e-02,3.518408496007452424e-02,-1.424915225483975798e-02,-1.307458247039981411e-02,7.374460149659275857e-04,5.205319034516976001e-03,-1.033275043059422166e-02,1.888545757643628328e-03,2.638300373656117873e-02,-2.596217709733219386e-02
2.753782597055119685e-02,2.589823348733057400e-03,-1.874895942778483223e-03,2.115980755261746837e-02,-1.764624981530970096e-02,5.984203608668844931e-03,1.569896128134634292e-02,2.390790649157914158e-02,8.001678776390696440e-03,7.715043559496361121e-03
4.098351130992780936e-03,3.672026289681438235e-03,4.256039007862229945e-04,2.695323487633702851e-03,8.620553738670435132e-03,-2.241191573955565817e-03,6.149141486061830870e-03,1.593146208642618952e-02,-2.738911776514313043e-02,1.783527163551778746e-02
-7.597752874745893927e-03,-3.874752848696541834e-03,-7.486845147290286089e-04,-1.136882378834818373e-02,1.669167020078090799e-02,-7.691498298792872126e-03,3.282992478227004639e-03,7.708090212561160420e-03,1.030014287344608800e-02,2.448647064628121234e-02
-2.244002294040175344e-02,2.463532323615524530e-02,-2.277964771458971388e-02,-2.742143530389336628e-02,4.711801771661403015e-02,2.472511109158515366e-02,3.232685203555893394e-02,6.936273486520200607e-03,-2.422875330344349820e-02,-1.054704435043835216e-02
-7.578613243484189944e-03,-1.396741309113798749e-02,1.516253952099849353e-02,-2.633905359798777157e-02,-1.541548508430001449e-02,-2.831919464659846813e-02,-1.827328645046718408e-02,-1.505349158855223690e-02,-3.463407647137752704e-02,-3.378260896214491105e-02
1.673243746017713529e-02,3.348367983452805400e-03,-2.276155518224650884e-02,-1.371295559717814264e-02,3.626924884509230302e-03,-3.186141704311032385e-02,2.981442404375293787e-02,1.719965248277034037e-02,2.662949577141534435e-02,1.678053001096289215e-02
4.197642351895253948e-02,1.580517308958752712e-02,-1.715242939127258406e-02,3.490884855843977286e-02,-3.265701516710269037e-02,2.560866560473588210e-02,5.137117157407975615e-03,-2.641014242691838102e-03,8.560375806635061105e-03,-1.695498075609378928e-03
-2.747026121975800969e-02,2.109380750521356110e-02,1.717337343753874007e-02,-2.641761592501099248e-03,-3.659698393757382373e-02,1.460105393646101909e-02,-3.187469688782875420e-03,3.150345986316185898e-02,3.210205519348077741e-02,1.940153687738824934e-02
1.687670557962058643e-02,-3.410130580884228324e-02,6.047777989782266404e-03,4.557030631846285471e-03,2.083878039174547753e-02,-4.667018955210214953e-03,5.490264867035312378e-03,4.704335587350578357e-03,1.171003632842828983e-02,6.118435518274644574e-02
3.245916436784034714e-02,3.632073427445305265e-03,-1.123475761645408716e-02,1.840866639898081428e-02,-4.501332110140890408e-02,-8.370130155738652808e-03,-3.015427346653401074e-03,-9.030341378793289159e-03,7.217424061881281411e-03,9.031554157243101150e-03
9.011617400445804532e-03,-1.447362347565723552e-02,3.343548663466105325e-02,-8.070109749206605398e-03,8.894385743380120359e-04,-5.422270374608128239e-03,8.938791546129856366e-03,1.347670609481175022e-02,1.442086201019216959e-02,1.559990505566141369e-02
1.714253136063062294e-03,-3.573725263690019670e-05,-7.533298022125488845e-03,2.499085399965644827e-02,-2.296490768700812021e-02,-1.125814647488360999e-02,9.192509496523500884e-03,2.355777894622069005e-02,1.592639729944656662e-02,3.803290346599087941e-03
-2.289903992837354768e-02,-1.146594175954337991e-02,-2.037364612898780181e-02,-4.088075143360618557e-03,3.976150879935999582e-02,-2.768599635941850455e-03,-2.640844102159784629e-02,-5.307976549825284100e-03,1.181596949801373524e-02,-2.128493039707441553e-02
1.073319617050065913e-02,-2.935435934095022639e-02,3.047476171047050833e-02,1.957466282093095131e-02,-8.577753481083312537e-03,-2.377171898053110494e-02,-3.606128636771676471e-02,-2.905786349331110005e-02,9.680072912938011281e-03,3.766795517872385118e-02
-1.961368542322759409e-02,-1.479926939008840980e-02,2.932107544928232168e-02,3.327818279704897880e-02,-2.679164416262964140e-03,3.587332274890209921e-02,2.467856734806575178e-02,8.939357274898428879e-03,-7.445094362542873517e-03,-2.346803460807296571e-02
-5.198565881347926541e-03,4.611700272340600419e-03,-2.256361982572633110e-02,-7.997944875002212933e-03,-3.881354248646461114e-02,-9.260612962106075027e-03,2.853293591836628552e-03,-2.668392260605075006e-02,-2.131352228859823006e-02,2.639159027316659648e-03
2.748924377079316889e-02,1.438532252054056104e-02,1.254955491858559050e-02,-2.193239955392341234e-02,-4.368802150528658737e-03,-2.659272755613694555e-02,8.578015384648923422e-03,4.056807543992946991e-03,1.456879090789345993e-02,-1.095958003117407029e-02
-2.154153033369481129e-04,2.776912479178739179e-02,-3.243183765471414903e-02,6.819684629890927080e-03,2.416392361568774072e-02,-1.793593282544508546e-02,1.542297970813555179e-02,5.869524575371181784e-04,5.663536172675390744e-03,4.367414340292290892e-03
-2.202109299230399844e-02,-1.064153759901837783e-02,-3.453017048954915708e-02,-1.508422102195005991e-02,1.089928797841894018e-02,-1.594024308730516287e-02,1.083578735361550270e-02,-7.832035466078312441e-03,1.035737270629388980e-02,3.145431572421230476e-02
-1.779541597183952745e-02,9.219752109678399504e-03,-6.522833875690128499e-03,1.248367992252774096e-03,-2.709432146686270582e-02,-1.571473527367005241e-02,2.884686118424327136e-02,-9.158560453625914227e-03,-9.689121668095398640e-03,2.645888420230456395e-02
7.659612227980460569e-03,-2.512860858510241116e-02,3.467237103305863266e-02,-1.425523698397112779e-02,-5.509355542978052779e-03,-8.647533494224922488e-04,2.455846764045508529e-02,-2.708857476000314530e-03,-4.450580523245691771e-04,2.854053854540915258e-02
-3.229286842957548170e-02,-1.500882886774644771e-02,4.145925615996236616e-03,-4.825152853213062788e-03,3.744113742240110648e-02,-1.908067893734023690e-02,6.898853050474961814e-03,8.522024694861202870e-03,-2.157034204820797163e-02,-1.217970500826301254e-02
-2.159253023174029576e-02,1.560943182386692954e-02,3.626035448617200355e-03,6.309710738366191597e-03,1.960400462819677711e-02,1.396023683151381874e-02,6.481185464381814670e-03,-1.704450236534095497e-02,2.988726437974586689e-02,-1.654811736322872595e-02
3.523194207588270684e-03,-1.068538053633419707e-02,1.940039653340395326e-02,-5.596435454210325899e-02,-1.704827510832188781e-02,-1.528908694152093274e-02,3.346284044370854971e-02,2.147449490743518971e-02,-1.221598299336380984e-02,1.163184943673131397e-02
5.695606150344189114e-03,1.661591883767149155e-02,2.857643341886977051e-02,2.088206304736826141e-02,3.215376762659249987e-02,-8.140979447105668038e-03,1.368776844217661206e-03,2.903572484405229567e-03,-2.130360329683354120e-02,1.583156990340783485e-02
2.615214495997800551e-02,-1.082898847540883329e-02,4.946571764081968787e-04,-1.184283076981740464e-02,1.686029423289581858e-02,-1.355681961739819150e-03,-1.261797895319003229e-02,-4.796424721311256037e-03,4.833050194611531077e-03,4.881792005190653538e-02
-1.873040465607459307e-02,-2.352163126144041910e-02,8.366477317777612152e-03,-4.022942963562323518e-03,-1.493403287936093506e-03,-1.383979884930745287e-02,1.813467028989608270e-03,-2.057320633098103091e-02,2.427437770504762074e-02,-6.520480258058820779e-04
1.464871068569581145e-02,8.484084688268596006e-03,-2.055269729330564191e-02,9.586904222401885036e-05,5.463651648218678311e-03,1.952779068241428453e-02,7.271372214874653999e-04,7.573301187460506484e-03,-2.657437112282216157e-02,1.515168806110073901e-02
-1.319738776309192785e-02,-1.323442640095925243e-02,6.707613841851446049e-04,1.494783379408078441e-02,3.954545032076027013e-03,1.115933601435518605e-02,-1.524106222567252374e-02,1.156435202245404597e-03,-6.233756645355354245e-03,-1.797663788082581524e-02
7.666761322067785003e-03,-2.650268951935796924e-02,2.114218201054647930e-03,3.721189176449946415e-03,3.505734299157883815e-02,6.218725559306572011e-03,-7.851274166436762042e-03,-2.538831892320313199e-02,4.799310663079647821e-02,8.813629376386021216e-03
-1.051316250874636399e-02,-1.409299160925525651e-02,-1.506559366895194110e-02,-1.251608097367211229e-02,7.760873357145253205e-03,1.063737278218474663e-02,-5.951848806845764367e-02,-4.626710203126297273e-04,1.274657713542716279e-02,-6.574994348241555188e-03
6.451308294947495636e-02,1.647135447838310104e-02,-1.968903313885376691e-02,-4.032899798526456275e-02,6.106852176605739868e-03,-1.219594591983792081e-02,3.993162661250119518e-03,1.306314569337107059e-02,1.819178892500056613e-02,3.727789662767091658e-03
-1.381479329466090821e-03,-1.766870034033020398e-02,-1.269027199965598769e-02,-8.805737647006480623e-03,-1.354338395622009354e-02,-2.418069142593909024e-03,-1.798183554072030951e-03,-4.752133917233638399e-03,2.824699339464606558e-03,1.399805226140799115e-02
-2.341741904103838284e-03,-1.725816519522029371e-02,-3.814346916803446671e-03,1.001912046367884127e-02,-1.132868293791959406e-02,9.727306376328157672e-03,-7.951482893287744507e-04,-1.603925527349856286e-02,-1.271732868081023107e-02,7.807788159780568518e-03
8.930225619938508483e-03,-2.826084227447959746e-03,3.474751159882027290e-02,-1.945164779602862742e-02,9.680746507162841727e-03,6.003259053241747321e-03,3.134288440418440957e-02,1.390241816442298363e-02,-2.209654268130210875e-02,-1.639635298288136126e-03
-2.896569379103493269e-03,-5.763606204899187138e-03,2.500239139672803292e-03,-7.986451695390077432e-03,8.719058981705489486e-03,6.052209162534602505e-02,5.195402771145034293e-02,1.805963414036660915e-03,1.428219850522100334e-02,-4.999331723451342496e-02
4.695161660762769279e-02,-1.463037061593700991e-02,1.503778389806639804e-02,3.396421824747578554e-03,2.054820184586952925e-02,2.624676595329590925e-02,1.431257488089108035e-02,-6.068952903175183801e-03,1.357106181384214010e-02,-3.278220234872014638e-02
-1.813701546365625861e-02,1.327303643512972413e-02,-2.942577582627292285e-02,-1.693810922651519182e-02,1.039124280511034663e-02,-3.097373118495228006e-02,1.613323387673497311e-02,-3.081541253646239570e-02,2.026054880405945766e-02,4.174739563919227514e-02
7.230047502447595545e-03,-4.268433121397274821e-02,-3.810557758120564076e-02,-3.500367491196026450e-03,-1.383776000231686301e-02,4.038584857326176641e-03,-8.429843475687785401e-03,-6.416427967821653269e-03,-1.005321099288524443e-02,9.511745047307829364e-04
-1.111265159338625796e-02,2.029613968168473420e-02,-1.234693354846581534e-02,-1.327216477245297434e-02,4.296076018535909154e-03,-1.087795010564480795e-02,7.319678657106495553e-03,-7.653999929381381621e-03,-6.074739037663519879e-03,4.841511182476760863e-03
2.076544402690098587e-02,-1.855168864780338406e-02,-2.959642597725725688e-02,-5.776925444926409546e-03,2.560287081711016405e-02,-3.651902213519538781e-02,-4.311260845191003041e-03,-1.228537793987092425e-02,2.315754153501222573e-02,1.294066505607197742e-02
1.323090037696166357e-02,2.622797193769249233e-02,-4.238370900807856461e-04,9.515002344780892907e-03,-1.990632440017130189e-02,-2.336402870469474549e-02,1.907859422201716240e-02,-3.534614009908299166e-03,3.669998189490224216e-02,-2.294318155903768072e-02
3.018018703462021363e-02,4.409724310030286448e-02,-1.198193093154992228e-02,-5.912826948112959169e-03,1.902964624452035611e-02,-4.033461483651226177e-03,5.886904238446695643e-03,1.679706912261703933e-02,-1.646775352047090109e-03,2.963889685630645941e-03
9.373254045619599378e-03,3.525854732332545788e-02,1.561606357311377119e-02,1.124577117387922168e-02,6.013288816036034198e-03,-2.322093091631410172e-02,5.043780636517021694e-04,-8.451473089424967793e-04,4.152645402526231044e-02,3.091849280710804934e-02
5.633919074329000673e-03,5.040942720307223235e-03,3.118703081676088909e-02,-1.396641676256561368e-02,1.606128082170749788e-02,4.160144869838029030e-03,8.986626300533200051e-03,-1.216609520035649532e-02,2.123434302272313515e-03,-3.336760012430400185e-02
3.286920971038510830e-02,-2.782060723766900667e-02,7.960184235357438756e-03,3.793704823673161100e-03,6.472206653171917040e-03,3.521476026711552881e-02,-5.030351007476964106e-03,1.439133024077501183e-02,-1.985181055508481590e-02,-5.216698154191036323e-03
3.797299155750850919e-02,1.071285806868602086e-02,6.997378378820193808e-04,-1.805937186126849864e-02,2.118941614464157908e-02,-5.239806178834865167e-04,5.465980891654207557e-03,-2.310725197697436131e-02,-1.108398042722650093e-02,2.530338757310278061e-02
4.853711550113104511e-03,-2.183361033246593308e-02,4.388581149180208023e-03,-1.179884996032569758e-02,-3.574809775297359271e-02,1.199462970944372917e-02,-3.077430840282272678e-02,1.505267663768671774e-03,-1.997387522149216346e-02,1.853367170917120943e-02
-6.659111842360217713e-03,1.674537511455000127e-02,-1.947973534294816095e-02,1.309962050540860318e-02,-9.989837127573052492e-03,-7.394115312007190632e-03,-4.074758786447901099e-02,3.802737801984682267e-03,-3.434617231357249556e-02,-1.877622810089969035e-02
-3.141446952764838808e-03,-1.194223423482037097e-02,-1.663301735145340798e-02,-3.022170779104202181e-04,2.309465661709701745e-02,4.742410523042882298e-03,7.901225478947584285e-03,-2.274059358283015558e-02,3.345796870475349627e-02,-1.085357888784680737e-02
-1.471682135300819358e-02,-2.035149123776800969e-04,-6.518867833589892663e-03,-9.175872847559479045e-03,2.747676374962156054e-03,2.230527963269977876e-02,2.426474537089695974e-02,-1.412314272163338151e-02,4.564562208326920258e-03,2.398652119270201083e-02
-2.342271172094439330e-02,-1.042425427743319880e-02,-1.938812260513486305e-02,-7.265855490725373414e-03,-2.476815302322808721e-02,5.929486790095228263e-03,-1.634199585757147022e-02,-2.129903559858439127e-02,9.914022817308444646e-03,-1.400680611340813717e-02
-1.867812830309051667e-02,-4.362082702468702763e-03,1.411622601183163024e-02,1.053269897725888499e-02,-8.368936463475513607e-03,-8.379899344420392929e-03,-9.856502472891281313e-03,-8.902844725253588123e-03,-1.229675198867336873e-02,1.257103697793407297e-02
-3.866403814349964052e-02,-1.870360533459719879e-02,-1.206331202706462449e-02,1.115262879011288781e-02,6.862312960857693510e-03,-7.386281141067454342e-03,7.457516525165224647e-03,1.877030355693232178e-02,-1.058894807729035721e-02,-1.933117580631743201e-02
-3.721240066185042480e-03,3.066141067528852827e-03,4.601655077934645351e-03,-1.264999169133888476e-02,-3.929853584424015250e-02,-5.629948594737639415e-03,3.417041578373471514e-03,-3.783732549697486468e-03,3.742491657527777238e-02,-6.352501981400526798e-03
-1.353205197947255668e-02,8.918805660715702771e-03,-2.919790733868796520e-02,-9.146771162896865856e-03,-1.710112693999532932e-02,7.944778586240089022e-03,-1.016140667970646255e-02,-1.430574227949468064e-02,-9.051531759962773080e-03,2.965603380583418588e-02
1.970615807294762503e-02,2.314631203044049262e-02,1.454491580558464267e-02,9.352722369925060147e-03,2.727182832071639237e-02,-8.215618987861031744e-03,4.842080460747661547e-02,-1.312935429222653223e-02,3.948194388041403186e-03,-9.361091584201371510e-03
-1.025519712244276835e-02,1.573381500605760836e-03,-1.038477264712758460e-02,-4.049155252458599974e-02,-4.204326645455949197e-04,-6.002062017012514510e-03,2.740461835917338759e-02,-2.529222667849099354e-02,-8.540585154066205817e-03,4.333529310820319336e-02
-1.042962368821624512e-02,1.518192721059115867e-02,-7.507872022452931511e-03,-1.430557319448484861e-02,-1.914595806249610663e-02,1.078975676897147955e-02,-2.298546793860969245e-02,6.433717649758197155e-03,7.426839331148223609e-03,2.182569408052518686e-02
3.669086772991549464e-03,-2.815582450071578424e-02,-3.559550902793850308e-02,-7.159556930300889355e-03,3.344333192526267873e-02,2.150256861702718597e-02,-3.454623420333063910e-02,-1.038630774738404615e-02,5.709159912664737296e-02,3.072010152001138084e-02
-2.155084988298864787e-02,5.265182491246776092e-03,-2.813052348347009571e-03,1.855629503556703586e-02,-2.680322914729469860e-02,-3.082330400843230449e-03,6.199527085581572027e-03,1.106994871535403125e-03,-2.285268481559745227e-02,-1.090270601677757571e-02
-1.535090490463146377e-02,1.070829873185208565e-02,-1.348864824626916370e-02,8.090067914520684272e-03,-3.706288859035906935e-02,-1.973461095351454302e-03,-8.435707549989211046e-03,-1.343877936416525490e-02,2.271071085668019407e-02,-9.494354792400587842e-03
1.207081491858535277e-02,1.994984380597869533e-02,1.467877517892468738e-02,-2.044370794938456942e-02,-7.630710435454241859e-03,5.488645150455733271e-03,1.299041678463628072e-02,-9.273198438218409334e-03,-1.218323314421654487e-02,3.394799293542788594e-03
-1.930327398242196596e-02,2.360539372236197114e-02,1.382334915542964612e-03,2.784872656849064071e-02,3.079510045391986930e-02,-8.804879328925084916e-03,-2.029542262010503376e-02,8.830380266499371919e-04,-6.752163948969980983e-03,-7.636497477223099482e-03
-2.244479400587539447e-02,-1.019942277966044523e-02,-1.312280676139287831e-02,-3.502626678977811478e-03,4.227914652964244457e-02,-1.291736158785342656e-03,3.641955871823473329e-02,9.651903623536444571e-03,-2.778198178646925504e-02,-1.439476210668481741e-02
-3.937373301005317461e-02,-1.276453770494625183e-02,1.466284242067440909e-02,1.704137732616646528e-02,1.298018727203365669e-02,-7.175245646446503332e-03,-1.535664956509496734e-02,2.113097283304112700e-02,-1.226229674515532352e-02,3.179067637694438231e-02
-1.021656152525025072e-03,1.973588184335800869e-02,-2.472313886343016978e-02,-1.684880327432255673e-02,-2.795212317627541673e-02,-1.811530144845831074e-03,-1.592961421967213284e-02,-1.914444219518259688e-02,-1.410923282580515276e-02,-2.341725195492444511e-02
4.374299805585736035e-03,7.238981594777899042e-03,-1.456618058175472054e-02,1.820099467096775170e-02,3.744398592577817889e-03,1.278770656722590451e-02,1.055497738683113884e-03,2.834131609594070251e-03,6.275593097979102579e-03,3.384168668034724659e-02
1.400146188662227884e-02,3.704369037758824951e-02,2.368644330849987989e-02,-3.419560383655641418e-03,8.266299452381883212e-03,3.036826876137218092e-02,5.550623225105039832e-03,-1.676515793589794523e-03,-1.511572701550613698e-02,2.241611614850147483e-02
-1.398968864249207529e-02,3.615403175094573061e-03,-4.027971123432266126e-02,1.184007792415007337e-02,-5.177598848407473885e-03,-1.640264497502325058e-02,-1.403866939529733668e-02,-1.669903674799119372e-02,-9.321180190398308321e-03,1.742974294114850442e-02
-3.997582509259038630e-02,-1.217857251954837169e-02,-2.133967576988024875e-02,-3.845915601796654620e-02,-5.588276224573427223e-03,-7.361441621009896102e-03,1.789536479915286582e-02,-2.734847206412934981e-02,-4.332417993501939957e-02,-6.633910402071264110e-03
3.509626844391303124e-02,-1.914952590769634314e-03,7.101793564856307469e-04,-7.687536996173105833e-03,2.933018826559504952e-02,-3.121906521521364969e-02,5.724022477723794168e-03,1.549536025265578140e-02,-1.316393992048936132e-02,3.697428888560295220e-04
-1.110354423922205094e-03,6.928549794244829620e-03,-8.312007923139351148e-03,-2.200473098401142108e-02,2.829124628827243623e-02,-2.522761025564845133e-02,-1.986665789544070013e-02,-4.530203592707318129e-03,-2.738266332623320171e-02,-2.248683994158710842e-02
1.701322943029104709e-02,2.580684303701532862e-03,7.094548524199884021e-03,8.717220930541962412e-03,1.590384432617539257e-02,1.244650778924418378e-03,2.574528506641613184e-03,3.231921889690402699e-02,5.877736375882791631e-03,1.275673368944759030e-02
1.123967555228861173e-02,2.971459482832822935e-02,-2.453051517298410894e-02,-2.493796190601134388e-02,-2.001609782476491267e-03,-2.967387890138043979e-02,-3.267091430605079810e-02,-2.527273165530238494e-02,-4.422032025503101369e-04,-4.625617569253911640e-03
2.593965619476249276e-02,2.969767631428299123e-02,1.003702449803441608e-02,-8.552398931834499438e-03,1.170849270717289232e-02,-2.710708342129219094e-03,-1.683529958192457252e-02,3.452286821082275331e-02,-2.911398785920035412e-02,-1.508058277304398856e-02
1.568633528858632414e-02,-8.971485026751786079e-03,7.461158857955766180e-03,1.645691574312134866e-03,3.119322118105077521e-02,-1.027524369057528086e-02,-4.745822715512762122e-03,9.758779242827995970e-03,-2.921162247026188111e-02,-1.647628142063623652e-02
1.021342747110130962e-02,8.163857161211020286e-03,-2.305258736587211671e-02,-1.539625035757501322e-02,-2.325584399508684799e-02,1.596976391370693443e-02,-1.375932074614579642e-02,-1.621426975016487110e-02,1.927097722002387922e-02,-4.209280198828605629e-02
-8.231383388568070400e-04,-8.878318237923808753e-03,4.322196606369099053e-02,1.420551378074107370e-02,-1.600618841422431562e-02,-3.023410996867476833e-03,1.381088757499032704e-02,4.147780900374973580e-03,-1.251614990153262011e-02,-4.793680253785953874e-03
4.093386760352244673e-04,-3.266689433713036023e-02,-2.250345673252566667e-02,-1.596947078648667390e-02,-1.198731829232035657e-03,1.958544815489624349e-02,-8.071106126590940621e-03,1.269839930053594072e-02,-1.168566014646389359e-02,3.056424808042055782e-02
-2.794331797471679996e-03,-5.572480244089620359e-03,3.108410101687419588e-02,-2.028583850477319941e-02,2.708554666078414469e-02,5.425469654604891598e-03,5.520082870851284254e-03,-1.311465551152193182e-02,2.516571407222168225e-02,-6.061744647872729409e-03
-2.517259117360853490e-02,1.663030117721381665e-02,1.815060440149713489e-02,-1.707499703833406310e-02,2.198576716578579462e-02,2.454771843209037699e-02,3.914012638791373663e-03,-3.617307694129848900e-02,-1.895832976772005712e-02,-4.620689390415926891e-03
1.734254362505862485e-02,-4.382143252552006887e-03,-2.911382132199952493e-03,2.926530503451617304e-03,1.173388297999666124e-02,-1.436862076223088987e-02,5.481910994553552963e-02,-2.063248336929330087e-02,-3.587682605978092382e-02,-7.849523322401434286e-03
-3.451245029343920356e-02,-8.647162382778052214e-03,-2.039754176044196541e-03,7.042268043152707067e-03,2.531439262690710242e-03,1.512898068999811614e-02,-1.064179234582557192e-02,-3.146553110976504919e-02,1.234447415832398524e-02,9.888370920920926815e-03
-5.476068924576623330e-03,-1.736358222438460705e-02,2.750085754317926554e-02,-5.146675283136878387e-03,-2.373022212988310994e-02,-7.612891951511517249e-03,-3.823286615512998948e-02,-1.585170328534300441e-02,1.577107312099995662e-02,-3.521604260376858756e-03
-3.509869247896311214e-03,-4.377996589875447092e-04,2.483011528525718662e-03,9.369562405217161591e-03,6.325295888740221049e-03,-8.932756452644442791e-03,5.587869241141261122e-03,9.424526735087469104e-03,-1.002306766417164832e-02,6.523185224224621430e-03
-1.222769500708082921e-02,-1.900524887086806058e-02,-6.773902199981520107e-04,1.218942635706203766e-02,-6.443828925008021104e-03,5.387128830145323719e-03,-2.598958306711922350e-02,2.124824710617644573e-03,-1.268403464648009543e-02,4.552647686524090125e-03
-3.351306275898428833e-02,-2.492419735777267817e-02,-1.261550186360816880e-02,7.590218354037407168e-03,-2.240454257501614879e-02,-1.269465598722731813e-02,-4.951720445700104160e-03,-4.786359237366286795e-03,-9.225642311731053341e-03,4.021433706634248983e-02
-2.876925096256743690e-03,-1.273761331216965997e-02,2.004753894533969211e-02,1.389295359651920511e-02,-2.090552552343673959e-02,2.226914433490167350e-02,-5.834645541896539209e-03,-4.519527833967649025e-03,2.495045623227678047e-02,2.545129655651073852e-02
2.247409732054773263e-02,-1.784051355494502972e-02,3.893368970899496349e-04,-2.677562694797232246e-02,1.881991238706228788e-03,8.037156740376716693e-03,-1.217693256717843238e-02,-2.494593144213942681e-02,-2.551691578041629868e-02,-5.038201549800179306e-03
-3.642875348244974110e-02,5.289764832935809485e-03,-5.832822567326234262e-03,1.866484182620091817e-02,2.224174286135425366e-02,-2.517112504569536929e-03,3.260139755822570118e-04,3.731200131005306918e-03,-2.650700517613675811e-02,1.484687218557904226e-02
-8.484210486276577007e-03,4.249462587907202812e-03,2.118186014869792577e-02,-1.228442554522004779e-02,-1.462080479725954858e-03,-2.995930185328256161e-03,2.198864837545238399e-02,2.495482867118988327e-02,-9.552195561937933121e-03,-4.294073809973499543e-03
-1.099541864737839207e-02,2.706669414590595884e-03,-2.709281323817484474e-02,-3.976772471743073023e-02,-1.339783371762302139e-02,1.607091781793157023e-02,3.718456492357629511e-02,2.467425737122985741e-02,1.439172245388215150e-02,-1.624914133614866960e-02
-1.081693343125143987e-02,-2.921497595825180496e-02,-1.261219418074183488e-02,-3.141744909459120993e-02,7.638041851693937526e-03,-5.665888291449879856e-03,-1.866642170551753924e-02,-1.002769806683626898e-02,8.622434543668875545e-03,3.442221820649897079e-03
-1.905365816097583792e-02,-7.233901159220118039e-03,1.229277268759233072e-02,-4.859589161090161272e-03,-1.665088371387829155e-02,-2.084171875321356310e-02,-1.869208080713558257e-03,1.452792961346642889e-02,-8.915077552364479227e-03,3.202237343393224585e-03
-3.146503787726598073e-03,-1.227471120108172701e-04,-2.978369393115705595e-03,-1.456115264763712270e-03,4.308873580878262027e-02,7.262218964141674456e-03,-1.615834502353470301e-02,2.321460241687963496e-03,1.339250385781026557e-02,-2.352344567333119335e-02
3.872738841167588930e-02,1.410398467979440303e-02,1.018710590164902986e-03,-2.722542103261175322e-02,4.281063992170834089e-03,-1.530262948725409806e-02,1.592784749710887335e-02,-3.803976013193948250e-03,6.874164808107550810e-03,1.806237629450155660e-02
-1.085377002978714020e-02,8.790634703248621090e-03,1.136906831158590765e-02,1.558917064506898202e-02,-1.495136945781182745e-02,9.572004713904062878e-03,-1.686047711394136721e-03,7.225034961673916685e-03,-1.117582244581438906e-02,2.072333452586078498e-02
-8.709439916241916782e-03,-1.460945760225771696e-02,-3.023515480843567277e-02,5.027538204934928895e-02,-8.234739940164119767e-03,-2.554758105229030726e-02,-1.423922945488804645e-02,2.039827453642247337e-02,-4.547437912588190440e-03,2.069163070647487765e-02
-2.623437802547529899e-03,8.628543219451802887e-03,-7.164675147570029670e-03,3.485516007640953456e-02,2.000222891810574458e-02,-6.174135879134400560e-03,-2.248991667585874960e-02,2.312414862825341866e-02,2.338367803988727206e-02,-1.080909704398185303e-02
5.322145275281968901e-05,-6.325803292697400673e-03,-1.596925527915031909e-02,-7.161210109274829955e-03,-1.527361500383702525e-02,-8.563673892575493496e-03,2.601799397846707093e-02,4.732151940063192980e-02,1.530168482728594577e-02,-4.785368916191434265e-03
3.371448422088860197e-02,1.632333541645423006e-02,-7.552635520705234390e-03,-2.391851831556300600e-02,-6.098773117893151879e-03,-1.970566622747659674e-02,-1.700440188945610484e-02,1.800250120073208088e-02,2.001152936760316331e-02,-2.903430444963688017e-02
-6.568268971763898886e-03,-3.321731066576202873e-02,-9.658977644146343050e-05,-1.774868169394069189e-02,-2.043206952910196078e-02,9.682831321311646811e-03,-4.464396286177031714e-02,1.749376483936410445e-02,2.967706509776089907e-02,3.628595001133662346e-02
-1.569754443386558399e-03,-4.235837496489584797e-03,-1.104888656996769886e-02,-4.632529919584920178e-03,-1.345301291960688574e-02,1.784666204066710088e-02,2.438042319356819448e-02,4.830928975557831307e-04,4.096653854894443877e-03,1.909196645116781549e-03
-1.037582923345380451e-02,2.141795810143239456e-02,7.422557428551258482e-03,-3.346576314709644173e-02,3.045574771599216923e-03,2.236352091160809935e-02,2.617991905640279157e-02,1.971587144359620777e-02,6.291674329177580731e-03,6.385805553163943944e-03
-1.412504472232530353e-02,8.351839407666258180e-03,-5.053771932070499212e-03,1.579994252888738742e-03,1.079762872180657120e-02,3.803169628219720943e-03,-1.901379412436604967e-03,6.996267517628500417e-03,-7.735585054427263595e-03,-5.986795706207258955e-03
-1.315691821853899254e-02,-1.920990932584549712e-02,-2.610864554027321916e-03,-7.263439301279853502e-03,-8.364827801606747153e-04,-6.080394469816295493e-03,-1.188789176479691095e-02,8.291104142834626600e-03,1.831261374886998874e-02,-2.348461201976691920e-02
1.368241070952282536e-03,1.683097187243403486e-02,3.258074233864217267e-02,4.119859877894645195e-02,-1.521427260656348264e-02,-2.992389599346084034e-02,3.540623601218725880e-02,-4.226045170049293198e-02,-1.906300901453562065e-03,-1.832559880162581978e-02
-9.430223252714062948e-03,-9.527619647404365552e-03,1.743057043645099280e-02,1.485068442370908286e-02,-8.755878642845250914e-03,2.238804620617424260e-02,3.522067113819608072e-03,-6.079019641796489827e-03,-1.258220664789243617e-02,3.410790867394736248e-02
-8.721230889271642389e-03,2.937958108924081102e-02,-1.651658248691900699e-02,2.514166678710860747e-02,2.595597837115084031e-02,1.837906311759238825e-02,-4.115536074540052450e-03,-1.279342586341420188e-02,-1.557867674960698116e-03,-3.560911373597459764e-04
2.411064261123677804e-02,-1.637382136241849126e-02,8.938536932679607555e-03,-2.178200638490038546e-02,-3.484447705722091768e-03,2.819610263392333810e-02,3.945535517394203884e-02,1.949708459019942192e-02,-1.663461416105917190e-02,-2.475321299921894036e-02
-2.581800810043128128e-02,-1.762391591308406710e-02,1.645707197235342367e-02,-1.951679216881050880e-02,-1.978709062489879527e-03,-7.228964228608426509e-03,2.339319950386533828e-02,1.497322117763559904e-02,7.963077155880127211e-03,7.623629973651989584e-03
-1.176728593091018015e-04,-1.348660893604609716e-02,2.846121869377157138e-02,2.704289760139854185e-03,1.366157578273645597e-02,-1.497741652916581567e-02,2.893879755890094163e-02,4.240669428442839228e-03,1.497388403079601832e-02,1.738866722963175113e-02
-1.029829183578533786e-02,1.036972625027786712e-02,2.438324684606707829e-02,1.533666420821751600e-02,-1.229238820524105810e-02,5.096213212690606925e-02,-1.935687530926042451e-03,3.033182659714652243e-02,-1.997084487430734329e-02,-1.564979215876061841e-02
-1.721494583090596095e-02,-1.300369858758123817e-02,-3.165193472475034270e-02,-5.259173391310880200e-03,-2.471157367811943617e-02,-5.319364477640682251e-03,9.103983978530926814e-04,3.139358824864967642e-03,-2.096889583500869542e-02,-3.103055401789579781e-02
-4.655515015828912660e-03,-1.309074558114094351e-02,1.952944153070260494e-02,1.181971106618369578e-02,1.975750686840820752e-02,-1.914770130980521451e-03,-1.359168326016688480e-02,-1.365130210668531220e-02,-8.000738083021834493e-03,-2.185111397541798089e-02
7.169487654390548255e-03,5.630518337535939111e-02,6.658467439671384748e-03,6.586677018643622436e-04,-1.838335554082209120e-03,2.869167131543886445e-02,-1.380857640783884812e-03,-1.511054534766065674e-02,-3.131358290011572454e-02,-9.917063151876823884e-03
6.104021282532420475e-03,-1.377623018420224763e-02,-2.774320123726609424e-02,-1.563001643913296268e-02,2.620310639272114373e-05,1.441982131100009654e-02,4.500036665546288533e-02,1.792777880731337772e-02,-1.525073689912606958e-02,-3.398946768591653428e-02
1.489392571117785849e-02,-2.221602294335026442e-03,2.993866578931555014e-02,-7.943772390014584850e-03,2.898686802683348232e-02,-1.198538630677112445e-04,3.526361288625538826e-02,1.738364692991370766e-02,-9.644874146922706101e-03,4.115573455200460633e-03
1.078519218392182989e-02,6.346805258982329140e-03,1.020785589171156575e-02,1.327034706578644752e-02,1.186084688703875623e-02,1.917514090999904164e-02,-1.599747314233415998e-02,1.938409887434824203e-02,4.173017834033410263e-03,1.041547607585251861e-02
1.196790321406205997e-02,5.101132767326535533e-02,-1.315653730250763813e-02,-2.264327552289316717e-02,3.337483882073193769e-02,-9.283689470748800535e-03,-4.586190428485859005e-02,3.586006894270885037e-02,1.547663316737324032e-02,-2.219243409555171631e-02
3.680765375916525406e-05,2.093712040717376696e-02,-1.798821386990322180e-02,3.266876455021144876e-02,2.200127392389731804e-02,-2.310858167478220537e-02,-5.594833397275827264e-02,2.282423137486691914e-02,3.319098018669476569e-02,4.337662176189976265e-02
-1.228637210340688055e-02,-1.177584882544086822e-03,-8.157305656958463436e-03,-3.773848140609862515e-03,-9.241876263397511698e-03,-3.370329974185612854e-03,1.038959532428387076e-03,3.237167774149385391e-02,7.839960972488329433e-03,1.236276386033398952e-03
2.247618319841740171e-03,-1.356647341355042384e-02,7.602287764213216253e-03,1.156173603712085107e-02,-2.074454510803060148e-02,-1.615485985736368063e-02,-2.270137074510521560e-02,1.091132739224192835e-02,1.570018864402430644e-02,4.306904298527353819e-02
4.794647283431778019e-03,1.870150896912445640e-02,-3.499481752786635924e-02,7.913703917296673745e-03,2.242678896313726050e-02,6.922030097814867774e-04,-6.593257788458510224e-03,8.221838880239570879e-03,-1.432445631696419377e-02,1.642946987224238459e-02
-1.244256039717104960e-02,-5.443308296501455333e-03,-2.841695171577608876e-03,-1.103480899003570805e-02,-3.686544160530979414e-02,2.479085071493309332e-03,-3.288641558829872441e-02,3.133380473653334802e-02,1.199679687116888063e-02,-1.036891720734820291e-02
3.593801105091040671e-02,-5.022750278997480805e-03,-1.021447491094472533e-02,5.076458416716726936e-03,1.491979705498685214e-02,-1.483849780028716030e-02,-3.541998918623096623e-03,-6.788073998031232681e-03,1.087775953322805272e-02,-1.648887854259654950e-02
-3.458727371027346675e-02,-2.591488191160746819e-03,-3.236675458214937490e-02,1.135839284509143794e-02,-1.314136987428768562e-02,1.751033403911358283e-02,-7.991276734831093825e-03,3.888048354177580778e-03,-3.820564949170916595e-03,8.328906110569720550e-03
-8.633622572993878558e-03,-1.790379602852693736e-02,-1.009333498746339819e-02,-5.633774564942567800e-03,8.735602104325406250e-03,1.232301974964145758e-02,-2.477463380884362739e-03,1.400111710836515408e-02,8.975729947569476008e-03,-2.625046487358604838e-02
-1.021230088269079600e-02,-2.774302480944843344e-02,-1.446075823242473808e-02,3.552787577064072159e-04,-1.570176060102456556e-02,-2.842568285987531404e-02,-1.177183464564420402e-03,-1.170775232198910734e-02,-8.811999354201540541e-03,-1.049155165910277583e-02
-1.207909389376816793e-02,-4.953510660478024213e-03,3.828751075243867590e-03,3.042048865481291556e-03,2.104595368979438746e-02,-4.292430910442507699e-03,7.910309637714293615e-03,-1.321213872426364212e-02,1.120850474855959560e-02,-4.896404956065571580e-04
-3.252848226652858832e-02,8.671287133824629942e-03,-1.932388344638648683e-02,-3.853999856771748046e-03,2.183731227909825948e-02,-1.803446956186108632e-02,5.261808094358285705e-03,-5.323082197963792742e-03,4.336524994804282374e-04,9.886754181508482925e-03
1.557590572535294321e-03,2.555082294015827843e-02,6.643444084843077094e-03,-2.655502530262504168e-03,-2.108595470796378532e-02,1.361347997613224052e-02,3.512382311241794841e-02,9.062042582987010417e-03,1.910390761084396552e-02,-1.329476204935526110e-02
2.633542082742780857e-02,2.154563068514534982e-02,-2.103943018342888799e-02,-1.783815529378853307e-02,2.313349232891799903e-02,-1.293767444844888190e-02,2.169441047981393936e-02,-2.121601856009854709e-02,-2.762750515884779962e-02,1.540146729754007619e-02
-2.636067651380915450e-02,-6.120565872741725796e-03,-1.557218815069273156e-02,5.573744636307272765e-03,1.599140449199777658e-02,-8.866575422579021926e-03,-3.246676853426437581e-02,9.078066813394044046e-03,-3.824730078470139211e-02,-4.482950769243513808e-03
-1.371634328079591666e-02,-1.468954355594202267e-02,2.317388386530414533e-03,1.519790893107053446e-02,2.874154077437922339e-02,-3.089186315376660826e-03,2.881789932873777410e-02,7.797488149398122334e-03,1.295402771722359162e-03,1.374198395986908627e-02
-4.743276781938010264e-03,3.488122952404393989e-02,-2.125114700369858112e-02,3.243946546776860923e-02,-2.448339220060875843e-02,-2.792627596482024840e-02,-5.428241455556765804e-04,1.281465548067629683e-02,-1.859924334403150262e-02,2.412157711358436235e-02
-4.019352995429321257e-02,1.863653793872122044e-02,1.008466505768761687e-03,-2.760857337281812096e-03,-1.887358281038518243e-02,-3.297614124574005986e-03,1.593974862734194933e-02,-2.863646867727571294e-02,6.512880801790004587e-03,2.961969760015002728e-02
1.477584230541541081e-02,-6.061745242671721934e-02,-8.596398039693649296e-03,4.684851824385160256e-03,4.690952576469249041e-02,-1.962236393845444554e-03,2.625052501459405885e-02,-2.308184840080453396e-02,-1.484633630249724071e-02,-1.021200426123971758e-02
-1.217646066208126834e-02,3.050089653034330009e-02,-1.722402028279528680e-02,-3.842886583543851913e-03,4.722875940917783082e-05,-1.851403480713004548e-02,3.027706913198104782e-02,1.727952957579495519e-02,1.654376083037396861e-02,1.937976364232282030e-03
-7.626396558647894133e-03,-2.424462379338224866e-02,-1.224529507919641658e-02,-1.659677977152928738e-02,2.068408290726608117e-02,1.157873475987533304e-02,3.659459918858625621e-02,2.961398262001109505e-02,1.804553767570782341e-02,-3.182743346410245311e-02
-2.355330887226575725e-03,-1.394976465508578241e-02,-1.068852702711571394e-02,9.571472900848435050e-03,-5.264841081424419950e-02,2.635657374858584728e-02,2.329825761695744971e-02,3.088669275429384992e-02,1.499487903419283001e-02,1.595245926631482306e-02
-3.843867071334697988e-02,-6.523289550649348859e-03,4.018639792381127791e-03,-8.404420760249355776e-03,4.285946288432956018e-03,2.432389714749582516e-02,1.246907213086247482e-02,1.061324554617511760e-02,4.132454524256444495e-02,8.799879746312617643e-03
1.022169113735726942e-02,1.265297847584633418e-03,-2.390175846357382033e-02,-8.635020468750224595e-03,-2.042416016682271039e-03,-5.493220831741537453e-04,-1.872383762620849143e-02,1.270610309134000832e-02,1.080563272538282923e-02,-1.138148482144579971e-03
7.662491421114066802e-03,2.853208835199910406e-02,4.903792128588219199e-04,1.272552042766550082e-02,-3.082503555098100624e-03,1.611279432728083758e-02,9.459675129059054097e-03,1.038835203303470171e-02,-2.284504838921148917e-02,-2.081894643478889029e-02
-2.146448662567957202e-02,-9.813375280565405159e-03,8.831324204981382334e-03,2.754013644112634704e-02,-4.149737585786331465e-03,4.535378824926747376e-02,1.122005235362642621e-02,1.839584818313590858e-02,9.609191916605006739e-03,1.361107364349102219e-02
-1.284470517278901713e-02,2.245595363268986649e-02,8.591770990772048047e-03,8.886885964349363135e-03,2.679984489640943948e-02,3.204209225999938779e-03,4.485416307888214806e-03,4.793258084963915137e-03,-1.899521201905881446e-02,1.909480790271061296e-02
1.519355639784854620e-02,-7.461310347174065181e-03,-1.263821048939552626e-02,4.065696150922571035e-03,-2.812501347266420718e-03,-2.396721152009808828e-02,-6.281385995945914721e-03,-2.856233820614385854e-02,-6.650824716042664890e-03,-1.595550186206912482e-02
3.803023882925123111e-02,1.514652232066923850e-02,2.138944777576723064e-02,-2.328236375852326540e-02,-3.350248231090638277e-04,-7.304976358968668509e-03,-7.029985076879480960e-03,9.528170372637376553e-03,2.488629505251493262e-02,1.461911483142055296e-02
9.594593486666230103e-03,-9.663170517969691883e-03,-2.505197201623829764e-02,-1.854447145846632727e-02,-9.871750909572783728e-03,-5.092524811610802532e-02,-2.717917197712861610e-02,-1.908326137783639478e-02,2.728272538556959087e-02,7.241076440696185210e-03
-5.263777691016515575e-03,2.274468994678063849e-02,2.025519674450408300e-02,-1.057048914772494227e-02,5.404957699331116618e-03,-2.132409560046793356e-02,1.980091958603269128e-02,-1.739063904190342458e-02,-1.578477639357072715e-03,2.447160487686615357e-02
-3.162352120452267823e-02,1.642038752823168912e-02,6.660176253722814967e-04,1.701249665298565708e-02,3.022508594012864383e-02,-2.141173678620666987e-02,-1.173949229462152750e-02,1.301623057780567239e-03,-2.547096400837452201e-02,-5.087679541477739542e-02
-1.308593116821321622e-02,2.400609028424904867e-02,-2.207402255774848845e-02,2.573081933885536937e-02,-1.487514257333289120e-03,2.221260563630519588e-02,-1.964730768599306024e-02,1.399441308794065371e-03,1.529858507247991092e-02,-2.194032449601725915e-02
3.942509001512258492e-03,1.801033910785466204e-03,2.673956784622420757e-03,3.379943558928725188e-03,-8.379249045158763953e-03,1.744731301584007133e-02,1.361582537743969909e-02,-2.385373983742673093e-02,3.496989253900135292e-02,9.881844289023691136e-03
-1.680990787097569328e-02,-8.684353475733486150e-03,2.517319202714485629e-02,2.247769129802022064e-02,4.806652718389962942e-02,-1.416275611578118486e-03,-2.655349609877423293e-03,-4.008290027312347986e-03,1.390772823410246425e-02,-1.364417993192414743e-03
2.213811233536111533e-02,-1.305973681446913857e-03,3.150853698337505865e-02,9.115831233233947367e-03,3.750635074626119080e-03,-7.713893021963973487e-03,3.379845788089099433e-03,1.433105126393602671e-02,-2.727894747694144945e-02,-9.009587129168933686e-03
-1.792480963041282599e-02,1.593045039434522192e-02,3.605618444374233955e-02,1.100631898669864137e-03,1.514786277235476066e-03,3.956175536539948464e-05,1.360185619111900328e-02,9.476105597958173286e-04,2.189268898609409830e-03,-6.215693681198821742e-03
-5.872787783084489587e-03,-5.662832898135155245e-03,-1.441512363897679352e-02,3.917113740875806729e-03,1.839128209785862583e-02,-1.770838749009314567e-02,1.313796458280161103e-02,8.286237075776445998e-03,2.207588547308265287e-02,-4.138520145862026149e-03
-9.955989576280799280e-03,-3.048719329226036445e-02,2.088800548009162039e-02,4.758785036767704951e-02,3.083076137093266472e-02,2.463826280281073561e-02,4.653079759025870871e-03,-2.219821055315936154e-02,-1.246552165484112080e-02,4.984875517535138599e-03
2.743209803408556968e-02,-4.526940016329114580e-02,-3.147499443740524316e-02,-2.713136648873678853e-03,-1.570915214970682039e-02,3.948145227224438697e-02,3.491124699483826033e-02,1.752118824107415720e-02,-7.145713024544114722e-03,-3.316683622524269938e-03
5.206062221206273800e-03,-1.431420224320066300e-03,2.118714247069288306e-02,-2.284682701642425789e-02,-2.883158795164104948e-02,3.211275170854132471e-02,-4.588935481009377010e-02,-2.620291338346417837e-02,-3.218859057211581089e-03,6.544430495749453160e-03
-2.693386033044032658e-03,5.836308878229847473e-03,-1.728697336884738728e-02,-4.462549181465746626e-03,-2.330557119326656223e-03,-2.096659786052576177e-03,-3.525139180041851270e-03,2.184942188943069658e-02,1.876580906789819970e-03,5.754523902839404036e-03
2.013449011864037672e-02,-1.420008517436790671e-02,-2.284580258934507460e-02,7.855192263033928396e-03,-2.852136361350058810e-02,-1.375200945929909088e-02,4.007082986231165662e-03,6.671973677544721162e-03,1.891582466603288978e-02,-2.233540458779271001e-02
7.009757993589812997e-04,3.392982054916028611e-02,-2.362790784907409930e-02,-2.220775238736730564e-02,2.422520560465086376e-02,6.195180563041340766e-03,-3.156021059209967311e-02,-1.751893274961824343e-02,3.912135106689400982e-02,-1.578033745261851750e-02
2.395420442973085831e-02,7.124504756858006209e-03,7.162421859341401185e-04,-1.972383116938926720e-02,3.797238267639044262e-03,4.344784311274087207e-03,-1.151720766356402123e-02,-1.692567886788614792e-02,-1.560710552411008999e-02,-5.852104286216176787e-02
-1.839378550177942287e-02,3.086596793840654454e-02,2.345108814137703696e-02,-8.482265643490281143e-03,2.976562045316855434e-02,-2.115508731420408239e-02,-1.445831515910807850e-02,-1.067801808602367869e-02,2.883606090133656458e-02,1.898649373131668441e-02
1.470350015716906378e-02,1.903217450808564193e-02,-3.275474662542347815e-02,6.720155361316987840e-03,1.064425529826564486e-02,1.503041474088773607e-05,-7.802683468855347053e-04,1.406740905075368545e-02,-6.638562813219141961e-03,3.022347493925128976e-03
2.256027759412270947e-02,-3.191957311660722357e-02,2.310846987648373582e-02,-5.645086005557260929e-03,5.049307241292884385e-04,-6.384063351283918337e-04,3.468521715263008995e-03,1.802556011716215101e-02,1.543017788311525779e-02,-1.360173468391616056e-02
-4.438214552539039050e-03,3.905796529702646597e-02,1.672738459693154725e-02,-6.937677266572557164e-03,-2.313646689302558193e-02,5.735690024422489264e-02,-8.655920367502716734e-03,3.181926398811281420e-02,-9.805916933320692891e-03,5.265911560727244700e-02
8.740740684515798525e-03,2.171870196460757088e-02,-1.084653903903456951e-02,-1.334227942966507464e-02,3.058543168362546499e-02,2.538936537403289288e-03,3.070048711214264439e-02,-4.399476361126742480e-02,1.581260963798930899e-02,6.333730280111529764e-05
1.388119809761032344e-02,-3.869421556821858212e-03,4.730313838048467306e-03,-8.161122415745061462e-03,9.612901881656409422e-03,3.456234867939944611e-02,6.325254897362234639e-04,8.123389085939080462e-03,2.848394475687975741e-02,3.364676512259075040e-03
-1.671496996489961473e-02,5.114812594286840056e-03,-2.794573518165049258e-02,-1.731884836921525339e-02,1.005455711034507031e-03,3.745250574802762300e-02,1.362696255643785874e-02,-2.579787264415511761e-02,-1.506074559605482047e-02,-7.112609850801857557e-03
-2.497022346903349926e-02,3.195708427948674990e-03,-6.962978665650406199e-03,-2.422399166175497835e-03,-1.741814628336247131e-02,1.811623894697655642e-03,8.102208927770239173e-04,3.082106972335690864e-02,-1.883448463438651410e-02,-2.763221598317141051e-02
1.203018165766959503e-02,3.136286916407803049e-02,3.429496588019624592e-02,7.404144428943653690e-03,4.585845467370064702e-04,1.364881158053035844e-02,-5.786622424828075442e-03,2.397868299876970005e-02,-9.225293862050560137e-03,1.701406988411895485e-02
-8.168359600693373551e-03,3.851982181256680821e-02,2.791734719266865741e-02,-1.282109712192160828e-02,3.421281103534839357e-02,-1.053609504534256010e-02,-3.417085788986643641e-02,-6.300674805151848870e-03,-6.796935793464824183e-02,2.572815890895877380e-02
1.476333199559107592e-02,1.084167273687858257e-02,3.290635388790797561e-02,7.085921053983417796e-03,1.825490350206581541e-02,-2.510822456240406619e-02,9.761411091836903753e-03,1.206483762642604311e-02,8.356338953408896583e-03,-1.333586728293389284e-02
-8.394697055383299952e-03,-3.848674318507411263e-03,9.945576076617734101e-03,-4.082555005934145748e-02,2.600548766719057003e-03,-2.101333637325095496e-02,1.947168095419861758e-02,2.155458660790150749e-02,1.159736577980084553e-03,2.199473578533552021e-02
-8.555772271999281938e-04,1.683274386513029450e-02,2.067093632113838411e-02,-2.525811837577625688e-02,-1.902008168275493710e-02,-1.086593115463456612e-02,2.216186870214864255e-02,9.420977662797124993e-03,1.620927989524129087e-02,-1.470088982987373567e-02
-4.648120387107323136e-03,1.674744412876482888e-02,-1.361015854174777925e-02,-7.492322928545519165e-03,8.589874784412982649e-04,1.040524361998399795e-02,-1.055119893907135141e-02,4.372244385729862071e-03,1.129634423887710716e-02,-7.432856719271528460e-03
5.514338462558823414e-03,-1.197800185403215083e-02,5.946363786172385521e-03,-2.148614853369390509e-02,-1.810299785037749326e-02,-1.958722537153033405e-02,2.401791585092777695e-02,-1.077713963677432753e-02,6.176108698597415625e-03,3.114846080784273042e-03
1.960334903368766719e-03,-1.907554078490422168e-03,-4.080580821038245348e-02,-1.170256404134118258e-02,-4.544178940518315418e-03,2.020575060336976189e-02,7.683232163063893026e-03,3.928990076559119721e-02,2.278127240345503152e-02,-2.921135483930350010e-02
1.244010494349325098e-02,8.247222608190577994e-03,1.348373850798464946e-02,1.022180594539462244e-02,5.249878030786882081e-03,-1.854483793810180609e-02,2.722634705809266753e-02,1.019908889188527422e-02,-6.496778007238849639e-05,-4.363433839626744762e-03
-9.436372471863345435e-03,-3.896640234868545526e-05,8.518920649989467769e-03,1.779616741557750459e-02,2.837877290046681572e-02,9.306926946804756212e-03,2.884166876978544805e-02,2.653079746893991300e-02,1.255970466323064021e-02,-1.547388803969688639e-04
3.299753485898297700e-02,-2.057448132525142165e-02,5.128347325882084452e-03,1.479384344838761793e-02,-8.753643533694068293e-03,8.066683476192887045e-03,2.015334631434846386e-03,5.938210780214637878e-03,3.677685356380755183e-03,-6.201833041065357190e-03
7.758576230803838382e-03,2.024735054055195813e-02,1.511951984676339171e-02,1.066629288927165714e-02,4.825460164364216847e-03,1.152311449340912355e-02,5.404896570371780368e-03,2.530021913804176084e-02,-9.807076267762686664e-03,1.147232751774805888e-02
6.739087616196197741e-03,4.828662709968756933e-02,-1.186113081215133327e-02,-6.597567143320514672e-03,-1.048940277750211487e-02,1.688814932790528439e-02,2.179168805243262771e-02,8.354841266471192338e-03,-3.475821759036722136e-02,2.465900730426087359e-02
